4.194550961256027222e-02,-4.656050801277160645e-01,9.331607259809970856e-03,9.251216426491737366e-03,-2.985431253910064697e-01,-4.407919198274612427e-02,2.522030845284461975e-03,1.418576203286647797e-02,-3.881152346730232239e-02,1.385324954986572266e+00,-1.804323308169841766e-02,2.171345055103302002e-02,5.508200265467166901e-03,-2.117132246494293213e-01,4.485006444156169891e-03,1.931787654757499695e-02,4.028051625937223434e-03,4.943700134754180908e-02,-1.377225816249847412e-01,3.698841333389282227e-01,-9.097637981176376343e-02,-5.483199357986450195e-01,5.898650363087654114e-02,2.198769524693489075e-02,4.672311246395111084e-02,3.853794559836387634e-02,4.655353128910064697e-01,8.875351399183273315e-03,2.557616680860519409e-02,-1.882538013160228729e-02,1.029962301254272461e+00,7.091624662280082703e-03,2.740121781826019287e-01,-2.997166104614734650e-02,2.520231343805789948e-02,-3.026037849485874176e-02,-1.936099492013454437e-02,-1.501043327152729034e-02,-4.900057241320610046e-02,-1.858473658561706543e+00,3.289633989334106445e-02,-2.619183659553527832e-01,1.066988229751586914e+00,-6.989248991012573242e-01,4.742074757814407349e-03,1.507175713777542114e-02,-2.686979249119758606e-02,-1.223035335540771484e+00,-2.037638574838638306e-01,2.022315002977848053e-02,-9.806411340832710266e-03,3.599500982090830803e-03,-1.457876563072204590e+00,-3.544358303770422935e-03,-1.494262695312500000e+00,-3.072328690905123949e-04,-1.420530200004577637e+00,-7.433182597160339355e-01,-9.896034002304077148e-02,2.267019264400005341e-02,6.741521414369344711e-03,-6.857630331069231033e-03,1.947208866477012634e-02,-3.893985599279403687e-02,-2.970325993373990059e-03,3.722776426002383232e-03,1.849506735801696777e+00,-4.845068615395575762e-04,3.299735859036445618e-02,-3.494789591059088707e-03,4.203220829367637634e-02,-1.806231215596199036e-02,1.713832258246839046e-03,1.225215662270784378e-02,-2.357683032751083374e-01,1.184624340385198593e-02,-2.198789641261100769e-02,-9.314434602856636047e-03,-2.512994706630706787e-01,-2.853226661682128906e-02,-2.094999514520168304e-02,-1.495269179344177246e+00,-1.218526531010866165e-02,-2.978807985782623291e-01,-9.129040874540805817e-03,1.539161801338195801e-02,2.429324574768543243e-02,3.499766811728477478e-03,-4.243973176926374435e-03,7.595044444315135479e-04,-9.257551282644271851e-03,-1.019742805510759354e-02,-5.026541184633970261e-03,-3.020320832729339600e-01,-3.950471058487892151e-02,8.582037687301635742e-02,9.555711410939693451e-03,1.925949193537235260e-02,-2.846792712807655334e-02,-2.138454467058181763e-02,3.751721978187561035e-01,7.465270757675170898e-01,-5.313552021980285645e-01,-1.367981079965829849e-02,5.631750449538230896e-03,4.043806344270706177e-02,-8.792757056653499603e-03,-2.382844313979148865e-02,-6.341081578284502029e-03,1.209261827170848846e-02,4.410691559314727783e-03,-8.901540422812104225e-04,2.464813180267810822e-03,9.199530817568302155e-03,-1.284419186413288116e-02,-2.383227460086345673e-02,-8.271401748061180115e-03,1.646748161874711514e-03,1.478341966867446899e-02,1.035540342330932617e+00,1.507055829279124737e-03,3.852024972438812256e-01,1.992716640233993530e-02,-8.143024751916527748e-04,-1.621364615857601166e-02,7.429534569382667542e-03,-1.268002986907958984e+00,3.377699991688132286e-03,-7.102566361427307129e-01,2.500585978850722313e-03,2.939908532425761223e-03,1.239723525941371918e-02,2.334031043574213982e-03,6.741843223571777344e-01,2.469555474817752838e-02,1.109196897596120834e-02,9.697785973548889160e-02,-4.700222983956336975e-02,7.432359457015991211e-01,-8.220226503908634186e-03,-5.578211974352598190e-03,2.195446752011775970e-03,-3.505058411974459887e-04,1.093742810189723969e-02,-9.369214065372943878e-03,-3.713303431868553162e-02,-1.726111918687820435e-01,-4.342190921306610107e-03,4.689106643199920654e-01,-2.474435605108737946e-02,-1.633133143186569214e-01,1.550842046737670898e+00,6.439042277634143829e-03,2.058157511055469513e-02,-1.911353436298668385e-03,-2.021865360438823700e-02,-2.990059554576873779e-03,-3.629229264333844185e-03,-2.646792272571474314e-04,-1.189082628116011620e-03,-7.741457317024469376e-03,9.753099083900451660e-01,1.664556190371513367e-02,-3.078684210777282715e-02,-2.053102292120456696e-02,-1.083583850413560867e-02,6.016091108322143555e-01,1.568778008222579956e-01,-1.388989090919494629e+00,4.302165471017360687e-03,-2.887203544378280640e-02,5.131861567497253418e-02,-2.712529897689819336e-02,-2.419944524765014648e+00,-2.109594084322452545e-02,-1.698303341865539551e+00,-5.496354307979345322e-03,-2.347515337169170380e-02,-1.859007403254508972e-02,-2.724800258874893188e-02,-2.893084101378917694e-02,-2.162559144198894501e-02,-6.424843668937683105e-01,-3.979468718171119690e-02,-1.432646438479423523e-02,-6.485181394964456558e-03,-1.677143760025501251e-02,3.169623378198593855e-04,-8.969021146185696125e-04,-2.435798197984695435e-02,-2.850646898150444031e-02,1.400118879973888397e-02,5.018591880798339844e-01,-1.517010014504194260e-02,-7.575335912406444550e-03,1.234017964452505112e-02,-9.760345332324504852e-03,-4.071934148669242859e-02,-3.015946131199598312e-03,6.152726709842681885e-03,6.120888981968164444e-03,-4.089878872036933899e-03,-1.194940414279699326e-02,-4.537039995193481445e-01,-8.607052266597747803e-03,-2.748845331370830536e-02,1.046884804964065552e-02,1.304676290601491928e-02,-9.286281652748584747e-03,1.549146231263875961e-02,-1.700803404673933983e-03,-2.689324021339416504e-01,2.121105557307600975e-03,-5.724152922630310059e-01,-3.027755618095397949e-01,-1.836238056421279907e-02,-2.934589236974716187e-02,-2.275394052267074585e-01,2.402638643980026245e-02,1.309092622250318527e-03,-5.006090551614761353e-02,-2.104837745428085327e-01,-2.317756041884422302e-02,-4.785588681697845459e-01,-1.189015805721282959e-02,2.497051469981670380e-02,-2.319968119263648987e-02,1.546598598361015320e-02,1.091825496405363083e-02,-3.187623573467135429e-03,-5.123738646507263184e-01,-2.970470190048217773e-01,8.548541227355599403e-04,4.620760213583707809e-03,-1.469973847270011902e-02,4.244377091526985168e-02,-2.740401327610015869e-01,4.210630357265472412e-01,1.278661843389272690e-02,5.044719669967889786e-03,-3.908838927745819092e-01,6.783470511436462402e-03,-1.625418782234191895e+00,7.569500012323260307e-04,-1.633100658655166626e-01,-2.614482343196868896e-01,6.614333949983119965e-03,1.383376191370189190e-03,9.260154329240322113e-03,-1.571771129965782166e-02,-5.169603973627090454e-02,-3.201444633305072784e-03,-4.262775182723999023e-01,1.956318877637386322e-02,-6.683306302875280380e-03,-2.219254076480865479e-01,1.710684620775282383e-03,2.884615585207939148e-02,2.451137825846672058e-02,-8.616440743207931519e-02,-5.686698108911514282e-02,2.337860502302646637e-02,-5.471854470670223236e-03,4.901307169348001480e-03,1.112584114074707031e+00,-3.956645261496305466e-03,-4.170771539211273193e-01,3.237510621547698975e-01,-2.726310119032859802e-02,-5.493168234825134277e-01,1.919969916343688965e-02,-3.841868788003921509e-02,-3.532496690750122070e-01,-2.215233253082260489e-04,5.552539825439453125e-01,2.987881191074848175e-03,-1.777567863464355469e+00,4.085159860551357269e-03,1.403288263827562332e-02,2.373834513127803802e-02,1.454772194847464561e-03,1.704132258892059326e-01,-5.074537992477416992e-01,6.719236262142658234e-03,-2.058246731758117676e-01,1.754146069288253784e-02,-5.710301920771598816e-03,-3.278700867667794228e-03,1.385954674333333969e-02,1.423148717731237411e-02,-6.312563419342041016e-01,1.725851930677890778e-02,-7.847923040390014648e-01,1.227916032075881958e-02,4.035633057355880737e-02,-3.071344196796417236e-01,2.918756101280450821e-03,-2.391279302537441254e-02,1.661390438675880432e-02,1.517467498779296875e-01
