-4.004476070404052734e-01,5.760191679000854492e-01,-5.267097055912017822e-02,4.119356274604797363e-01,3.055455386638641357e-01
-3.325002193450927734e-01,-1.189826577901840210e-01,8.812246918678283691e-01,-1.509967565536499023e+00,4.394219517707824707e-01
-1.818374395370483398e-01,3.800371885299682617e-01,1.169760346412658691e+00,-5.239361524581909180e-01,-3.412318527698516846e-01
4.959246814250946045e-01,-1.040001273155212402e+00,7.736926078796386719e-01,1.611666679382324219e+00,8.372511714696884155e-02
-6.043778657913208008e-01,-7.191499322652816772e-02,-6.030805110931396484e-01,9.522734284400939941e-01,-3.226325809955596924e-01
-1.376833081245422363e+00,-4.243873357772827148e-01,9.202808141708374023e-01,1.560377597808837891e+00,2.121203243732452393e-01
-9.813838601112365723e-01,-3.171209692955017090e-01,8.726208209991455078e-01,-4.030988514423370361e-01,-3.741729855537414551e-01
5.479974672198295593e-02,7.462379932403564453e-01,-1.439356058835983276e-01,5.917989611625671387e-01,1.216706857085227966e-01
-1.156157732009887695e+00,-1.000548481941223145e+00,4.194605350494384766e-01,-6.402788758277893066e-01,-1.107466518878936768e-01
-6.650329232215881348e-01,-2.912991344928741455e-01,1.485348939895629883e+00,-1.033486485481262207e+00,3.501242101192474365e-01
6.335771679878234863e-01,-1.982048004865646362e-01,1.110524773597717285e+00,-1.483544707298278809e+00,5.462800264358520508e-01
1.070928573608398438e+00,3.800296783447265625e-01,3.011623322963714600e-01,-4.748278558254241943e-01,2.251330018043518066e-01
8.143175244331359863e-01,-8.294184207916259766e-01,-9.077821373939514160e-01,3.421242535114288330e-01,-1.571666449308395386e-01
4.299958944320678711e-01,5.286544561386108398e-01,2.695663273334503174e-01,1.268267631530761719e-01,4.380553066730499268e-01
-4.276475869119167328e-03,-6.832281351089477539e-01,1.702905446290969849e-01,6.127970814704895020e-01,4.784696549177169800e-02
5.489721298217773438e-01,-1.122706681489944458e-01,-9.657860994338989258e-01,2.142182350158691406e+00,8.813289552927017212e-02
-5.865126252174377441e-01,5.232678353786468506e-02,-3.184369206428527832e-01,-1.579491496086120605e+00,2.823439836502075195e-01
-6.312043219804763794e-02,3.859120309352874756e-01,-1.256211400032043457e+00,-1.485466510057449341e-01,7.479839771986007690e-02
-7.138936519622802734e-01,-2.602885365486145020e-01,-1.955085843801498413e-01,-1.676452994346618652e+00,-2.659717798233032227e-01
6.201005578041076660e-01,4.072969853878021240e-01,9.330439567565917969e-02,1.233743280172348022e-01,4.025211334228515625e-01
-8.413181900978088379e-01,1.456982344388961792e-01,1.528605222702026367e+00,8.997850418090820312e-01,4.829886257648468018e-01
2.879574000835418701e-01,4.173498451709747314e-01,3.774211183190345764e-02,-1.207714557647705078e+00,4.618106484413146973e-01
-1.030069947242736816e+00,-3.292923271656036377e-01,-9.208115339279174805e-01,1.575269818305969238e+00,9.939311444759368896e-02
1.262318193912506104e-01,3.079346716403961182e-01,-3.492405414581298828e-01,-1.012919768691062927e-01,-3.215928673744201660e-01
-1.526555895805358887e+00,1.290467381477355957e-01,-7.419127225875854492e-01,8.171006441116333008e-01,3.093836009502410889e-01
-1.396384596824645996e+00,-1.025556683540344238e+00,5.489546060562133789e-01,-4.117785990238189697e-01,-2.229289412498474121e-01
-2.350336015224456787e-01,-1.716206818819046021e-01,1.759163498878479004e+00,-1.748879551887512207e-01,-7.358976006507873535e-01
5.975478887557983398e-02,7.014787793159484863e-01,-3.376231789588928223e-01,6.535372138023376465e-02,8.042231947183609009e-02
3.693430125713348389e-02,2.978642098605632782e-02,-1.117618799209594727e+00,1.167731046676635742e+00,2.198566943407058716e-01
5.224065482616424561e-02,-4.063852429389953613e-01,1.069454312324523926e+00,-4.667044579982757568e-01,5.883010625839233398e-01
-1.712579280138015747e-02,3.390968590974807739e-02,1.427142977714538574e+00,-3.189173340797424316e-01,5.991865396499633789e-01
2.982751131057739258e-01,-2.703088819980621338e-01,6.822388768196105957e-01,2.332640409469604492e+00,-3.077964484691619873e-01
-5.943008065223693848e-01,-7.369277477264404297e-01,1.602490305900573730e+00,-3.226177394390106201e-01,2.646307460963726044e-03
-2.647981941699981689e-01,1.749962270259857178e-01,-2.369876384735107422e+00,6.665985584259033203e-01,1.949744075536727905e-01
-2.206591516733169556e-02,-2.319503426551818848e-01,1.145380973815917969e+00,-1.724466562271118164e+00,-6.596612334251403809e-01
4.643990099430084229e-01,-2.511096186935901642e-03,2.331855773925781250e+00,4.689654409885406494e-01,-3.838081359863281250e-01
2.947859168052673340e-01,-9.175021201372146606e-02,8.534474968910217285e-01,1.772009730339050293e+00,-4.286617934703826904e-01
-1.068404555320739746e+00,-3.472312390804290771e-01,1.430746436119079590e+00,-7.504858970642089844e-01,3.499920368194580078e-01
1.147134155035018921e-01,-3.660517632961273193e-01,1.767362236976623535e+00,-6.978623270988464355e-01,4.231230020523071289e-01
-4.547324180603027344e-01,-3.149466812610626221e-01,1.085150361061096191e+00,5.613709688186645508e-01,-5.495861768722534180e-01
1.506377905607223511e-01,-6.783221662044525146e-02,4.530771672725677490e-01,-1.485612392425537109e+00,7.434919476509094238e-01
1.009922027587890625e-01,1.017179131507873535e+00,6.313571333885192871e-01,-1.039596915245056152e+00,3.394913077354431152e-01
3.542006015777587891e-01,-6.532198190689086914e-02,8.367210626602172852e-01,-3.845762312412261963e-01,-3.882040381431579590e-01
-8.694682717323303223e-01,-2.241820096969604492e-02,-1.097490310668945312e+00,9.087812900543212891e-01,1.355443447828292847e-01
-6.093728542327880859e-01,-7.089251875877380371e-01,1.653952449560165405e-01,1.348147630691528320e+00,1.018123701214790344e-01
-5.809592604637145996e-01,-6.640231013298034668e-01,-2.910845875740051270e-01,-2.191201448440551758e+00,-4.419907182455062866e-02
4.538581371307373047e-01,-1.278300583362579346e-01,1.354351758956909180e+00,-8.058985322713851929e-02,2.701245248317718506e-01
8.172868937253952026e-02,7.577466219663619995e-02,4.679102301597595215e-01,-1.735952138900756836e+00,-5.534877777099609375e-01
3.257176876068115234e-01,2.177949547767639160e-01,1.612756729125976562e+00,-1.388072609901428223e+00,-5.186845064163208008e-01
7.832957506179809570e-01,-4.301508963108062744e-01,-8.929265737533569336e-01,-2.744309306144714355e-01,9.526980109512805939e-03
-2.062920331954956055e-01,-5.708748698234558105e-01,-5.602662917226552963e-03,-2.386242628097534180e+00,-2.042306214570999146e-01
2.027213275432586670e-01,-1.404672145843505859e+00,8.130450248718261719e-01,8.860537409782409668e-01,2.277896851301193237e-01
2.982511520385742188e-01,1.835573911666870117e-01,5.041574239730834961e-01,1.981781601905822754e+00,-1.111984774470329285e-01
3.058649003505706787e-01,1.943412721157073975e-01,3.326172828674316406e-01,1.456657290458679199e+00,3.464574813842773438e-01
-7.314967513084411621e-01,-7.057263851165771484e-01,6.077890396118164062e-01,2.172391414642333984e+00,1.885971575975418091e-01
2.165242470800876617e-02,2.884461283683776855e-01,-1.011150717735290527e+00,3.038868606090545654e-01,-1.023072283715009689e-02
3.169734030961990356e-02,-2.581806182861328125e-01,7.769193649291992188e-01,1.016583919525146484e+00,-3.599942028522491455e-01
-2.976318299770355225e-01,-2.909111678600311279e-01,3.050169646739959717e-01,-1.575469493865966797e+00,-2.493220716714859009e-01
-3.281613290309906006e-01,1.238269954919815063e-01,-9.289610981941223145e-01,1.377325057983398438e+00,2.056744545698165894e-01
4.836432337760925293e-01,3.512915968894958496e-01,7.302485704421997070e-01,3.068191707134246826e-01,4.136358201503753662e-01
-2.721858322620391846e-01,-2.839515209197998047e-01,9.676801562309265137e-01,-2.605977468192577362e-02,-8.019704222679138184e-01
8.318887092173099518e-03,-6.480732932686805725e-03,8.656100630760192871e-01,5.522204637527465820e-01,9.378119707107543945e-01
-1.056541800498962402e+00,5.181156992912292480e-01,1.144364118576049805e+00,1.555425673723220825e-01,4.563635587692260742e-02
-3.582588732242584229e-01,-1.990566104650497437e-01,7.358525693416595459e-02,-5.896764397621154785e-01,-2.441884428262710571e-01
-6.963507533073425293e-01,-9.190530776977539062e-01,1.725904703140258789e+00,-2.386664599180221558e-01,1.126002818346023560e-01
2.689347565174102783e-01,3.512829542160034180e-01,9.232599139213562012e-01,-9.059218168258666992e-01,-5.708901882171630859e-01
-1.918552875518798828e+00,-7.279586791992187500e-02,-1.337731599807739258e+00,1.184823632240295410e+00,4.015467315912246704e-02
2.817925624549388885e-02,-2.802267670631408691e-01,-2.402156293392181396e-01,1.144751429557800293e+00,2.492223680019378662e-01
-1.645066440105438232e-01,-1.228902488946914673e-01,6.109625101089477539e-01,-2.167854785919189453e+00,-2.228965014219284058e-01
3.621846437454223633e-01,2.947961986064910889e-01,7.182455658912658691e-01,1.465389370918273926e+00,-1.917080283164978027e-01
4.956958591938018799e-01,2.295808494091033936e-01,-2.111597508192062378e-01,-1.432826757431030273e+00,2.668998539447784424e-01
-8.593180030584335327e-02,-9.582787156105041504e-01,6.396317481994628906e-02,1.472906470298767090e+00,6.551590561866760254e-02
-3.654839992523193359e-01,5.922754853963851929e-02,7.394559979438781738e-01,-6.667794585227966309e-01,5.283715724945068359e-01
1.935305888764560223e-03,2.790787220001220703e-01,1.978340387344360352e+00,-5.128732919692993164e-01,-3.689997792243957520e-01
-5.587859153747558594e-01,-2.980987541377544403e-02,1.327910900115966797e+00,-1.452072143554687500e+00,1.741347610950469971e-01
2.388682961463928223e-01,4.343995451927185059e-01,1.262904286384582520e+00,-1.370713710784912109e+00,-3.874354660511016846e-01
7.713723182678222656e-02,-2.076106369495391846e-01,-1.272585153579711914e+00,2.028523921966552734e+00,4.321018606424331665e-02
6.485200524330139160e-01,5.980874300003051758e-01,7.243049740791320801e-01,-1.583456873893737793e+00,-2.360972017049789429e-01
9.996222257614135742e-01,2.460801452398300171e-01,-4.059167802333831787e-01,-1.216459199786186218e-01,1.668227016925811768e-01
3.494283258914947510e-01,1.891572028398513794e-01,7.054806351661682129e-01,2.067264914512634277e-01,4.824009239673614502e-01
-1.939286738634109497e-01,2.837074697017669678e-01,-9.748367965221405029e-02,-4.840033948421478271e-01,1.085726022720336914e-01
1.616400182247161865e-01,2.337908893823623657e-01,8.121526241302490234e-01,-1.358880400657653809e+00,-4.515509009361267090e-01
-9.534062743186950684e-01,-2.578504979610443115e-01,8.713722825050354004e-01,7.907543182373046875e-01,2.014029771089553833e-01
5.343837141990661621e-01,6.329825520515441895e-02,-1.603819012641906738e+00,1.471619844436645508e+00,2.055257111787796021e-01
-7.112204432487487793e-01,-1.817418187856674194e-01,1.177801251411437988e+00,1.449800133705139160e+00,1.288031935691833496e-01
-2.035734355449676514e-01,4.355215728282928467e-01,1.314867734909057617e+00,-1.314575433731079102e+00,-5.279620885848999023e-01
1.441896259784698486e-01,3.501458466053009033e-01,8.428782820701599121e-01,-1.321426630020141602e+00,-3.939343690872192383e-01
7.136421203613281250e-01,7.143583297729492188e-01,5.976994037628173828e-01,-1.074849843978881836e+00,4.884119033813476562e-01
-5.614549517631530762e-01,5.923742055892944336e-01,-1.772956252098083496e-01,1.006247520446777344e+00,1.326635200530290604e-02
-1.480938792228698730e+00,-6.146003603935241699e-01,7.946925759315490723e-01,-7.656983733177185059e-01,-9.657124429941177368e-02
6.940239071846008301e-01,-1.134547069668769836e-01,-1.556253314018249512e+00,6.050886511802673340e-01,4.396137595176696777e-02
5.867410302162170410e-01,5.420598387718200684e-01,-6.269851326942443848e-01,8.425548076629638672e-01,5.287255048751831055e-01
-1.432165384292602539e+00,-7.022500634193420410e-01,1.201060175895690918e+00,-1.018259763717651367e+00,-1.270704865455627441e-01
-5.141329765319824219e-01,-7.460371255874633789e-01,8.245180249214172363e-01,1.983927190303802490e-01,-5.848239064216613770e-01
6.910582780838012695e-01,1.231416389346122742e-01,-2.906842827796936035e-01,1.767320334911346436e-01,2.084617614746093750e-01
2.342939525842666626e-01,3.941839039325714111e-01,6.207746267318725586e-01,2.136885970830917358e-01,4.681426882743835449e-01
-1.060770273208618164e+00,-5.024073719978332520e-01,-3.781184554100036621e-01,-3.818775713443756104e-01,3.603604435920715332e-01
-1.532094597816467285e+00,-5.955801606178283691e-01,4.721997976303100586e-01,-8.466230630874633789e-01,-6.565759181976318359e-01
-4.364716410636901855e-01,-5.383460521697998047e-01,-5.273729935288429260e-02,1.562242627143859863e+00,-2.013249844312667847e-01
5.448858737945556641e-01,4.292349219322204590e-01,2.207743972539901733e-01,-8.683910369873046875e-01,2.253864556550979614e-01
7.155491709709167480e-01,-2.745647430419921875e-01,-8.259902000427246094e-01,8.953375816345214844e-01,1.025000959634780884e-01
3.719573318958282471e-01,9.052360653877258301e-01,-8.660690858960151672e-03,-1.634456276893615723e+00,4.327224195003509521e-01
1.235056743025779724e-01,1.432157009840011597e-01,1.781880021095275879e+00,-1.099677532911300659e-01,-5.387089252471923828e-01
-2.683388888835906982e-01,7.500962167978286743e-02,3.284217119216918945e-01,-1.463607996702194214e-01,-4.219376947730779648e-03
1.156639680266380310e-01,2.120913118124008179e-01,9.285356998443603516e-01,-1.491475012153387070e-02,5.425497293472290039e-01
1.019585728645324707e-01,-3.504529893398284912e-01,-1.579748272895812988e+00,1.297717452049255371e+00,4.604808241128921509e-02
-1.817223131656646729e-01,-5.055905580520629883e-01,-4.011606574058532715e-01,-2.940107822418212891e+00,-5.043821036815643311e-02
2.075779289007186890e-01,1.319817006587982178e-01,7.063100337982177734e-01,1.108978629112243652e+00,-3.494710326194763184e-01
-2.376105487346649170e-01,4.863691329956054688e-01,1.624993383884429932e-01,8.343611359596252441e-01,4.194000661373138428e-01
-1.600661128759384155e-02,-7.576084136962890625e-01,-2.145018428564071655e-01,1.665834546089172363e+00,3.463366031646728516e-01
3.746570646762847900e-01,4.640562087297439575e-02,-5.463367700576782227e-01,-2.231235355138778687e-01,6.538205593824386597e-02
-1.129844307899475098e+00,2.673880010843276978e-02,-1.242996811866760254e+00,1.754323124885559082e+00,1.582732796669006348e-01
-2.174545526504516602e-01,-8.952642977237701416e-02,2.165457725524902344e+00,-6.389222145080566406e-01,-6.583782434463500977e-01
-9.029064178466796875e-01,2.530284821987152100e-01,-8.476571440696716309e-01,9.647548794746398926e-01,1.768807470798492432e-01
5.410881638526916504e-01,1.224482357501983643e-01,-1.403743505477905273e+00,8.533529639244079590e-01,2.592378854751586914e-01
-4.861720502376556396e-01,3.711468875408172607e-01,3.056025028228759766e+00,1.875689951702952385e-03,-6.203304529190063477e-01
-6.537767052650451660e-01,9.914239048957824707e-01,4.039673805236816406e-01,-3.036876618862152100e-01,2.076931744813919067e-01
-3.138043284416198730e-01,7.498050928115844727e-01,2.878487408161163330e-01,-2.556982636451721191e-01,5.659807324409484863e-01
-2.505605481564998627e-02,-2.196538299322128296e-01,2.860290706157684326e-01,-2.215293645858764648e+00,5.980929136276245117e-01
6.568080782890319824e-01,-3.039913177490234375e-01,6.399844288825988770e-01,9.753706306219100952e-02,-3.113291263580322266e-01
6.352054476737976074e-01,-1.524439454078674316e-01,9.913453459739685059e-01,1.745463609695434570e+00,-3.557373881340026855e-01
1.470866799354553223e-01,4.307035803794860840e-01,1.019055604934692383e+00,1.895129084587097168e-01,7.175065875053405762e-01
-2.102616071701049805e+00,4.011255204677581787e-01,-4.617924094200134277e-01,4.710540771484375000e-01,-1.325584948062896729e-01
4.523860216140747070e-01,1.366776078939437866e-01,-2.421792745590209961e-01,-1.654098033905029297e-01,-1.613468490540981293e-02
-5.375255346298217773e-01,7.659801840782165527e-01,1.124061107635498047e+00,-1.565458297729492188e+00,2.020580023527145386e-01
-5.152559876441955566e-01,7.667740583419799805e-01,1.175351262092590332e+00,-8.786559849977493286e-02,2.744685709476470947e-01
5.587366595864295959e-02,2.649967372417449951e-01,-1.426421880722045898e+00,9.659426808357238770e-01,2.062513679265975952e-01
-2.743987441062927246e-01,3.279414772987365723e-02,-1.267129182815551758e+00,2.117632389068603516e+00,8.599136024713516235e-02
1.997669488191604614e-01,1.574241071939468384e-01,1.379122614860534668e+00,-2.193370819091796875e+00,-5.721483230590820312e-01
1.645563244819641113e-01,-1.459732800722122192e-01,3.147707700729370117e+00,3.888988494873046875e-01,-3.608511388301849365e-01
-5.770013332366943359e-01,1.935965865850448608e-01,4.538228511810302734e-01,-3.393673896789550781e-01,-3.333521485328674316e-01
-7.485223412513732910e-01,3.282106518745422363e-01,4.341758489608764648e-01,1.165934443473815918e+00,4.443262815475463867e-01
1.923443824052810669e-01,1.094461530447006226e-01,-4.113544821739196777e-01,1.997985482215881348e+00,1.791770905256271362e-01
-1.066256523132324219e+00,-4.566197693347930908e-01,-4.564665853977203369e-01,-1.421493411064147949e+00,-4.056417644023895264e-01
-8.131937980651855469e-01,-7.670372128486633301e-01,1.043353557586669922e+00,-1.272123932838439941e+00,-1.496865451335906982e-01
-1.354067306965589523e-02,-8.623751252889633179e-02,-1.155161976814270020e+00,1.568901300430297852e+00,1.936498582363128662e-01
-6.052407622337341309e-01,2.189470976591110229e-01,1.090648889541625977e+00,2.868121862411499023e-02,4.656703472137451172e-01
-1.094875335693359375e+00,7.564268708229064941e-01,6.808511614799499512e-01,-4.899157881736755371e-01,2.498410493135452271e-01
1.357160806655883789e-01,8.543492853641510010e-02,-1.322940468788146973e+00,1.217072606086730957e+00,1.411479115486145020e-01
-3.783376812934875488e-01,-4.491633176803588867e-01,3.274559676647186279e-01,-2.661132335662841797e+00,-2.112353295087814331e-01
-3.496447950601577759e-02,1.002569794654846191e+00,8.687897324562072754e-01,7.437781095504760742e-01,1.157514564692974091e-02
-1.191339120268821716e-01,6.575859338045120239e-02,2.889017164707183838e-01,-1.154457405209541321e-01,1.987002417445182800e-02
-5.195083022117614746e-01,-6.192119792103767395e-02,9.794322252273559570e-01,-2.952366769313812256e-01,2.199498116970062256e-01
3.575368225574493408e-01,-2.569647431373596191e-01,-5.869594216346740723e-01,1.786862373352050781e+00,8.097817748785018921e-02
-1.226326823234558105e-02,-9.593176245689392090e-01,-1.297354251146316528e-01,1.324141025543212891e+00,-4.651386737823486328e-01
3.072648346424102783e-01,9.416847825050354004e-01,2.301597148180007935e-01,-1.363441705703735352e+00,3.059385158121585846e-02
5.349660515785217285e-01,-4.312208890914916992e-01,4.277892112731933594e-01,1.106296300888061523e+00,-3.197217583656311035e-01
-7.097377628087997437e-02,-2.087086588144302368e-01,4.071042835712432861e-01,-1.635021209716796875e+00,-5.952416062355041504e-01
-6.921200156211853027e-01,-4.952348470687866211e-01,1.158201336860656738e+00,1.328332901000976562e+00,2.497734278440475464e-01
3.893635272979736328e-01,-6.454799175262451172e-01,-2.485854327678680420e-01,1.551402688026428223e+00,3.564557060599327087e-02
1.074463948607444763e-01,8.408116698265075684e-01,6.576044559478759766e-01,-1.046253204345703125e+00,7.031127810478210449e-01
-4.258484244346618652e-01,9.209787249565124512e-01,-7.331358194351196289e-01,-4.454690814018249512e-01,3.819825053215026855e-01
2.464161962270736694e-01,1.275440454483032227e-01,7.949866652488708496e-01,-1.187884211540222168e+00,6.687628626823425293e-01
-4.568012356758117676e-01,3.288192451000213623e-01,1.086422920227050781e+00,-1.223308205604553223e+00,3.207191526889801025e-01
-2.547221183776855469e-01,8.255926370620727539e-01,1.078421950340270996e+00,-1.706293225288391113e-01,-2.733741700649261475e-01
-3.323530256748199463e-01,2.665312290191650391e-01,1.283115625381469727e+00,1.236873567104339600e-01,-5.068524479866027832e-01
-1.252556204795837402e+00,-8.450946807861328125e-01,1.853073358535766602e+00,2.084424942731857300e-01,-1.113810949027538300e-02
1.883518695831298828e-02,-4.866339862346649170e-01,8.543330430984497070e-02,-1.632982611656188965e+00,-4.525615572929382324e-01
2.280981242656707764e-01,-7.293143272399902344e-01,2.421795725822448730e-01,1.457683682441711426e+00,8.129262924194335938e-02
5.327079296112060547e-01,-3.251325786113739014e-01,-1.587503194808959961e+00,7.829361557960510254e-01,2.799804136157035828e-02
2.984744608402252197e-01,1.759716868400573730e-01,1.162651330232620239e-01,1.596942782402038574e+00,4.994913935661315918e-01
-9.944242984056472778e-02,2.882076203823089600e-01,4.526163935661315918e-01,-3.582686558365821838e-02,3.336736559867858887e-01
-3.701376542448997498e-02,-9.767352342605590820e-01,8.870443105697631836e-01,1.117796659469604492e+00,-3.800782561302185059e-01
5.234985947608947754e-01,5.640861392021179199e-01,9.248053431510925293e-01,2.119156599044799805e+00,-8.702586591243743896e-02
4.916715323925018311e-01,1.671351641416549683e-01,-2.790764570236206055e-01,-1.418637871742248535e+00,2.172389626502990723e-01
-2.632589638233184814e-01,6.839454174041748047e-01,1.256089806556701660e+00,-1.835064768791198730e+00,3.547536134719848633e-01
5.445131659507751465e-01,1.336647719144821167e-01,-6.011188626289367676e-01,-8.954143524169921875e-01,1.190825551748275757e-01
2.819764316082000732e-01,9.096992760896682739e-02,6.872450113296508789e-01,8.712885379791259766e-01,7.292004227638244629e-01
-5.525357723236083984e-01,8.099077939987182617e-01,-9.741458296775817871e-01,6.505954861640930176e-01,1.241107843816280365e-02
-3.889307379722595215e-01,-4.325493872165679932e-01,1.071301102638244629e+00,-3.719761595129966736e-02,-6.173223257064819336e-01
-3.695264756679534912e-01,8.200454711914062500e-01,-1.121327996253967285e+00,2.425619810819625854e-01,2.943493723869323730e-01
-4.800689220428466797e-01,-2.024696916341781616e-01,-2.866926491260528564e-01,1.863614916801452637e+00,-6.017237436026334763e-03
8.126061558723449707e-01,1.189515367150306702e-01,-2.769831418991088867e-01,-6.331211924552917480e-01,1.823533028364181519e-01
1.210082173347473145e-01,-2.207413613796234131e-01,1.914989709854125977e+00,1.440006941556930542e-01,6.883390545845031738e-01
-7.811771631240844727e-01,-7.406272888183593750e-01,-4.521764516830444336e-01,1.816246628761291504e+00,-2.018026560544967651e-01
3.176876306533813477e-01,-3.757799267768859863e-01,-7.873283624649047852e-01,8.046456575393676758e-01,-1.622203737497329712e-02
-8.048143237829208374e-02,1.937079578638076782e-01,-8.428799510002136230e-01,7.014984488487243652e-01,1.639179140329360962e-01
-1.952248811721801758e-02,-4.592039808630943298e-02,1.119328498840332031e+00,-1.575682610273361206e-01,3.782455623149871826e-01
9.442710131406784058e-02,-1.442929822951555252e-02,-8.533796668052673340e-01,1.167005777359008789e+00,4.274918884038925171e-02
-8.571078181266784668e-01,-7.236305624246597290e-02,1.554876446723937988e+00,-1.141354084014892578e+00,4.584541618824005127e-01
9.034896641969680786e-02,4.417058229446411133e-01,8.114833235740661621e-01,2.376493662595748901e-01,5.437224507331848145e-01
8.808037638664245605e-01,-1.966823637485504150e-02,-9.793620109558105469e-01,4.962782859802246094e-01,1.148371100425720215e-01
-7.117187976837158203e-01,2.794003188610076904e-01,9.001998901367187500e-01,9.532619118690490723e-01,4.995439052581787109e-01
2.580207884311676025e-01,3.658193945884704590e-01,-3.130365610122680664e-01,5.860469937324523926e-01,2.147289961576461792e-01
1.934904977679252625e-02,4.003544151782989502e-01,1.379017472267150879e+00,1.577023744583129883e+00,-2.278111875057220459e-01
-8.136469721794128418e-01,4.606754183769226074e-01,1.170468449592590332e+00,1.112354636192321777e+00,3.609286248683929443e-01
-1.620225787162780762e+00,-4.255516529083251953e-01,1.253252267837524414e+00,9.671603143215179443e-02,5.829062685370445251e-02
-4.595262706279754639e-01,-4.535109996795654297e-01,-4.832556471228599548e-02,-1.623966932296752930e+00,-4.306358993053436279e-01
5.416685938835144043e-01,8.659462928771972656e-01,-5.257433056831359863e-01,1.531607270240783691e+00,7.206099629402160645e-01
-3.308666869997978210e-02,5.110541731119155884e-02,-1.208938807249069214e-01,7.066427469253540039e-01,1.870686747133731842e-02
8.190401196479797363e-01,1.695250421762466431e-01,4.012663662433624268e-01,-1.335032343864440918e+00,9.519785642623901367e-02
9.198714047670364380e-03,-7.165663242340087891e-01,1.028820395469665527e+00,1.354012370109558105e+00,1.470974981784820557e-01
-1.973396986722946167e-01,3.743633031845092773e-01,7.124066352844238281e-02,1.460135102272033691e+00,4.067207872867584229e-01
5.822030901908874512e-01,2.195982933044433594e-01,-1.883315891027450562e-01,5.264796614646911621e-01,2.873758077621459961e-01
-2.577866911888122559e-01,5.388575792312622070e-01,5.843629240989685059e-01,1.343244910240173340e-01,1.538579612970352173e-01
2.000208050012588501e-01,-3.982747793197631836e-01,-5.920377969741821289e-01,1.055549263954162598e+00,2.599497735500335693e-01
-4.489995911717414856e-02,-3.458444178104400635e-01,-3.846362233161926270e-01,1.800766825675964355e+00,-3.505536913871765137e-02
-3.778893500566482544e-02,-1.767956465482711792e-01,1.357428669929504395e+00,-2.022638797760009766e+00,4.903271794319152832e-01
4.952158629894256592e-01,-3.212744891643524170e-01,1.699944019317626953e+00,-2.500817775726318359e-01,-3.905945420265197754e-01
3.988904953002929688e-01,7.452636212110519409e-02,1.792220026254653931e-01,-2.099770307540893555e+00,-2.727867662906646729e-01
-1.576500296592712402e+00,-1.004842638969421387e+00,5.390745401382446289e-01,8.137672543525695801e-01,-1.257223039865493774e-01
5.246949195861816406e-01,5.361631512641906738e-01,4.636298120021820068e-01,-2.380462735891342163e-01,4.327246844768524170e-01
-1.711779683828353882e-01,-3.728232532739639282e-02,-1.199173450469970703e+00,1.491791129112243652e+00,2.169613540172576904e-01
5.614920258522033691e-01,7.271936535835266113e-01,6.265173554420471191e-01,-5.081508755683898926e-01,4.747520983219146729e-01
4.748520851135253906e-01,1.375323086977005005e-01,6.227184534072875977e-01,3.529750704765319824e-01,6.101068258285522461e-01
6.224355697631835938e-01,5.842673182487487793e-01,-3.163887262344360352e-01,-9.293633103370666504e-01,1.997063010931015015e-01
-1.310504078865051270e+00,-6.180025339126586914e-01,1.011445403099060059e+00,-8.451870083808898926e-02,6.935822963714599609e-02
1.843468099832534790e-01,1.428291499614715576e-01,1.361689805984497070e+00,-2.001128941774368286e-01,5.810807347297668457e-01
-4.160616397857666016e-01,-4.644023776054382324e-01,1.628335714340209961e-01,1.759815067052841187e-01,-5.768578648567199707e-01
-3.727794066071510315e-02,2.653707265853881836e-01,-3.140508383512496948e-02,-1.113671302795410156e+00,3.064434230327606201e-01
-1.200576573610305786e-01,9.940177202224731445e-02,-2.308271408081054688e+00,6.513174176216125488e-01,1.170208454132080078e-01
-8.709710240364074707e-01,-6.530702710151672363e-01,3.476132750511169434e-01,-1.215772628784179688e+00,-4.459470510482788086e-01
-7.274170517921447754e-01,1.743276119232177734e-01,4.046198129653930664e-01,1.810657143592834473e+00,4.268731474876403809e-01
-6.834473013877868652e-01,-3.351479470729827881e-01,-6.061711907386779785e-01,-2.201415061950683594e+00,4.547275975346565247e-02
-2.751159071922302246e-01,-1.968115717172622681e-01,-3.668427169322967529e-01,2.163997888565063477e+00,-1.357592046260833740e-01
3.877863585948944092e-01,5.086026787757873535e-01,1.189606487751007080e-01,-5.921273231506347656e-01,-3.582866489887237549e-02
9.683760404586791992e-01,-3.719680309295654297e-01,8.634578585624694824e-01,-6.455070972442626953e-01,-5.022678896784782410e-02
-4.163393080234527588e-01,-4.189796373248100281e-02,2.337013244628906250e+00,2.749858796596527100e-01,6.552579998970031738e-01
-6.324729919433593750e-01,3.913638889789581299e-01,-8.490713238716125488e-01,-1.736055463552474976e-01,1.797476112842559814e-01
-6.812764406204223633e-01,-8.746277689933776855e-01,7.824246287345886230e-01,-6.378971040248870850e-02,9.132341295480728149e-02
4.047470986843109131e-01,7.968093752861022949e-01,-1.419301778078079224e-01,-1.399735331535339355e+00,9.581962227821350098e-02
3.567263484001159668e-01,1.937154829502105713e-01,6.650343537330627441e-01,1.690593123435974121e+00,-1.987956464290618896e-01
1.961506158113479614e-01,1.299980878829956055e-01,9.777021408081054688e-01,-1.806505203247070312e+00,5.363884568214416504e-01
1.238354668021202087e-01,4.541589692234992981e-02,-1.512514233589172363e+00,1.624391674995422363e+00,2.933040559291839600e-01
6.665307283401489258e-01,3.736478090286254883e-01,-3.023690283298492432e-01,-1.721470117568969727e+00,2.443063855171203613e-01
-5.135560035705566406e-01,3.177314400672912598e-01,1.585750579833984375e+00,-1.514546513557434082e+00,-7.357349991798400879e-01
-2.560670971870422363e-01,-5.694042444229125977e-01,-2.507757842540740967e-01,-2.736616611480712891e+00,-4.126384481787681580e-02
-7.168201804161071777e-01,-7.747628688812255859e-01,5.189559459686279297e-01,-9.434963464736938477e-01,2.537964284420013428e-01
-3.847739994525909424e-01,8.557270467281341553e-02,7.653002142906188965e-01,-1.416786551475524902e+00,4.702148735523223877e-01
4.960824549198150635e-01,-2.761943340301513672e-01,-7.041308283805847168e-01,-9.372158646583557129e-01,4.191910848021507263e-02
3.581552505493164062e-01,5.514300465583801270e-01,7.633566856384277344e-01,7.829100489616394043e-01,-1.619855314493179321e-01
3.757612109184265137e-01,-4.683443009853363037e-01,-9.751804471015930176e-01,5.695975422859191895e-01,-6.793777644634246826e-02
-1.869116574525833130e-01,-2.772976160049438477e-01,1.514798879623413086e+00,7.266913056373596191e-01,-4.970223903656005859e-01
4.326719045639038086e-01,2.080234885215759277e-02,8.088432550430297852e-01,-6.933506727218627930e-01,-5.699299573898315430e-01
-6.921314001083374023e-01,-1.804807335138320923e-01,1.760403037071228027e+00,3.592422306537628174e-01,5.423959493637084961e-01
-8.005587011575698853e-02,1.831784844398498535e-01,2.341758728027343750e+00,-4.084493815898895264e-01,-4.463333189487457275e-01
-5.460374951362609863e-01,4.980200529098510742e-01,-1.106875896453857422e+00,2.806481420993804932e-01,1.492608040571212769e-01
-5.905558913946151733e-02,-2.275205450132489204e-03,-1.203040599822998047e+00,1.687225103378295898e+00,2.271433621644973755e-01
-3.122851252555847168e-01,1.030223965644836426e+00,-6.415911912918090820e-01,6.394157409667968750e-01,3.732770085334777832e-01
-1.592865824699401855e+00,-7.457674741744995117e-01,4.084600806236267090e-01,-5.873324871063232422e-01,-3.451332151889801025e-01
-1.103806048631668091e-01,-2.929974496364593506e-01,-3.195130228996276855e-01,2.268521547317504883e+00,1.415250599384307861e-01
-3.503124117851257324e-01,1.571333408355712891e-01,6.436442583799362183e-02,-2.329197645187377930e+00,2.927709817886352539e-01
-5.728047490119934082e-01,7.651764750480651855e-01,-5.109335780143737793e-01,4.108228087425231934e-01,1.338445395231246948e-01
1.626164317131042480e-01,7.845699191093444824e-01,8.104640990495681763e-02,8.069306015968322754e-01,7.928542047739028931e-02
-8.037775158882141113e-01,-6.543226838111877441e-01,1.344379782676696777e+00,-7.769286632537841797e-01,1.981169544160366058e-02
-4.198786802589893341e-03,-3.713185712695121765e-02,3.317134618759155273e+00,4.302575588226318359e-01,-4.962890446186065674e-01
6.895694881677627563e-02,-9.555509313941001892e-03,5.272371694445610046e-02,-2.144016772508621216e-01,1.180216111242771149e-02
6.121054887771606445e-01,-2.948926091194152832e-01,-1.040415406227111816e+00,7.090247273445129395e-01,1.370482444763183594e-01
1.499016885645687580e-03,4.301213026046752930e-01,-8.067556023597717285e-01,6.677412390708923340e-01,-2.065561711788177490e-03
-2.998279631137847900e-01,-3.057955205440521240e-01,-6.218891739845275879e-01,1.903687477111816406e+00,8.717807382345199585e-02
3.846701085567474365e-01,3.877981603145599365e-01,8.487703204154968262e-01,-2.537307739257812500e+00,2.300047725439071655e-01
-1.297068893909454346e-01,-9.200306534767150879e-01,-3.806606829166412354e-01,2.134715557098388672e+00,8.255000412464141846e-02
-6.530064940452575684e-01,-6.426757574081420898e-01,2.265258133411407471e-01,-1.870294809341430664e+00,-3.201786279678344727e-01
-3.295576572418212891e-01,-4.101621210575103760e-01,-1.471381634473800659e-01,-2.066006183624267578e+00,-5.222919955849647522e-02
3.499703109264373779e-01,7.969371080398559570e-01,5.816264152526855469e-01,-5.002969130873680115e-02,5.733041558414697647e-03
-7.467514276504516602e-01,8.443295359611511230e-01,7.727036476135253906e-01,-4.102550745010375977e-01,5.467447042465209961e-01
-2.034357488155364990e-01,4.281797707080841064e-01,1.200397491455078125e+00,-1.358622550964355469e+00,1.832664012908935547e-01
1.349222958087921143e-01,3.460592627525329590e-01,4.159390926361083984e-01,-8.184180855751037598e-01,3.094797134399414062e-01
-3.046136200428009033e-01,-5.125921964645385742e-02,-3.745264187455177307e-02,1.290227055549621582e+00,2.123423069715499878e-01
4.314248263835906982e-02,-5.044142603874206543e-01,9.544566869735717773e-01,-4.001513123512268066e-01,4.986515939235687256e-01
1.472932249307632446e-01,-1.296480417251586914e+00,3.083383738994598389e-01,7.840162515640258789e-01,4.438488483428955078e-01
2.876592576503753662e-01,-6.990347802639007568e-02,7.587563991546630859e-01,-9.938467741012573242e-01,2.881907820701599121e-01
-8.404826521873474121e-01,1.006429828703403473e-02,-1.197206825017929077e-01,-2.138594150543212891e+00,-2.102015763521194458e-01
4.085542857646942139e-01,4.824200868606567383e-01,1.118820548057556152e+00,6.496152281761169434e-02,4.200233221054077148e-01
7.214869558811187744e-02,7.472900152206420898e-01,8.308536410331726074e-01,1.161759644746780396e-01,5.950551629066467285e-01
-6.990491747856140137e-01,1.928059458732604980e-01,8.594708517193794250e-03,-4.586004316806793213e-01,1.667923480272293091e-02
-2.297865003347396851e-01,6.354407072067260742e-01,1.381129860877990723e+00,9.823563098907470703e-01,-6.109266728162765503e-02
-9.705178141593933105e-01,-1.059955060482025146e-01,-1.232647657394409180e+00,1.840762376785278320e+00,1.111953556537628174e-01
3.754731267690658569e-02,9.336470961570739746e-01,-2.166362404823303223e-01,2.005323469638824463e-01,1.713210195302963257e-01
-1.044901371002197266e+00,7.313017249107360840e-01,9.069105386734008789e-01,1.712642461061477661e-01,2.818473577499389648e-01
-9.506964087486267090e-01,1.045756861567497253e-01,3.319951593875885010e-01,2.161990106105804443e-01,-8.519857376813888550e-02
6.435390710830688477e-01,-5.218535661697387695e-01,2.220639735460281372e-01,1.691757678985595703e+00,5.535804480314254761e-02
-1.537639975547790527e+00,-7.629980444908142090e-01,1.182278513908386230e+00,1.649550050497055054e-01,-2.450691536068916321e-02
-2.070716172456741333e-01,6.080580949783325195e-01,5.798106789588928223e-01,-7.699944376945495605e-01,2.537567913532257080e-01
-9.183613955974578857e-02,-1.261563133448362350e-02,-1.148171305656433105e+00,2.001003026962280273e+00,5.816837400197982788e-02
-7.866613566875457764e-02,2.777670919895172119e-01,2.757727384567260742e+00,-5.634311437606811523e-01,-4.400247931480407715e-01
-1.054095029830932617e+00,2.604405581951141357e-01,1.197849392890930176e+00,1.315456509590148926e+00,5.615515112876892090e-01
-1.855660346336662769e-03,-9.125882387161254883e-02,-1.129024863243103027e+00,1.371455669403076172e+00,1.958265751600265503e-01
-1.999043464660644531e+00,-5.194615125656127930e-01,5.598134994506835938e-01,1.042566776275634766e+00,1.270958632230758667e-01
-3.819878101348876953e-01,-3.583907186985015869e-01,-4.595732688903808594e-01,2.136685132980346680e+00,-9.703475981950759888e-03
1.567277312278747559e-01,-8.643752932548522949e-01,2.896763384342193604e-01,9.364364147186279297e-01,2.386258989572525024e-01
2.282918393611907959e-01,-5.060245990753173828e-01,-3.782362043857574463e-01,-2.604892015457153320e+00,-8.594715967774391174e-03
-4.700309634208679199e-01,1.138625070452690125e-01,1.591439098119735718e-01,-2.165589809417724609e+00,3.425432443618774414e-01
-1.277887821197509766e-01,6.530474424362182617e-01,7.889565229415893555e-01,-1.436391830444335938e+00,-1.294766813516616821e-01
-5.545377135276794434e-01,-7.096173167228698730e-01,4.131928980350494385e-01,2.323926925659179688e+00,2.726916968822479248e-01
-1.893875598907470703e-01,2.366177439689636230e-01,-4.740181937813758850e-02,-4.336648285388946533e-01,9.489378333091735840e-02
-6.113414764404296875e-01,-1.094292774796485901e-01,-1.813921093940734863e+00,6.136412620544433594e-01,2.048721909523010254e-02
6.828258633613586426e-01,3.348865807056427002e-01,-3.564886450767517090e-01,-4.005518853664398193e-01,3.113853931427001953e-01
4.365894198417663574e-01,-2.444821894168853760e-01,1.059824705123901367e+00,1.620642662048339844e+00,3.761993348598480225e-01
6.945284008979797363e-01,-2.869382798671722412e-01,1.397022128105163574e+00,1.449621915817260742e+00,3.649463653564453125e-01
-1.557840555906295776e-01,-1.048993229866027832e+00,1.806750446557998657e-01,1.235944151878356934e+00,5.393463373184204102e-01
7.123569250106811523e-01,8.537378907203674316e-01,8.632445931434631348e-01,-9.735447764396667480e-01,-2.967179566621780396e-02
1.478019952774047852e-01,-4.120231270790100098e-01,1.240852952003479004e+00,-2.156238079071044922e+00,-6.277660727500915527e-01
6.744175553321838379e-01,4.665858149528503418e-01,1.227211356163024902e+00,-7.081779837608337402e-01,-1.079398691654205322e-01
-1.682894825935363770e-01,2.759184315800666809e-02,1.276161223649978638e-01,8.318066596984863281e-02,1.597772724926471710e-02
1.995701640844345093e-01,2.451773136854171753e-01,1.505865216255187988e+00,-1.790683507919311523e+00,-5.702154040336608887e-01
5.203806757926940918e-01,-4.675919115543365479e-01,-1.810463905334472656e+00,1.173472046852111816e+00,-2.957781963050365448e-02
2.275421917438507080e-01,8.984524607658386230e-01,5.131165385246276855e-01,-5.847418904304504395e-01,3.591955602169036865e-01
3.876324295997619629e-01,3.241886496543884277e-01,3.480118215084075928e-01,-4.096491932868957520e-01,-2.464260309934616089e-01
-6.407820582389831543e-01,2.718331813812255859e-01,8.301435708999633789e-01,-1.671547889709472656e+00,6.807905435562133789e-01
5.661812424659729004e-01,8.084890842437744141e-01,5.045198649168014526e-02,-2.386572211980819702e-01,5.399767756462097168e-01
2.900180518627166748e-01,1.363837569952011108e-01,7.428978681564331055e-01,-1.036161541938781738e+00,5.283136367797851562e-01
-1.429782509803771973e+00,7.867137342691421509e-02,1.544191241264343262e+00,1.711010038852691650e-01,-2.327015101909637451e-01
-2.301148623228073120e-01,2.014308571815490723e-01,9.383095502853393555e-01,1.762962102890014648e+00,5.530627965927124023e-01
-2.563178539276123047e-01,-2.750027179718017578e-01,-1.239560768008232117e-01,-2.417505025863647461e+00,3.103138692677021027e-02
1.044479459524154663e-01,7.663815617561340332e-01,9.563494324684143066e-01,-7.528148889541625977e-01,1.540185213088989258e-01
6.201890707015991211e-01,-2.210600823163986206e-01,1.023069739341735840e+00,8.709418177604675293e-01,3.196760714054107666e-01
-1.598914526402950287e-02,-2.512075006961822510e-01,1.928882122039794922e+00,1.776582002639770508e-01,-4.862271547317504883e-01
7.470210194587707520e-01,4.747369885444641113e-01,4.895224273204803467e-01,2.557909786701202393e-01,5.460703969001770020e-01
1.604373902082443237e-01,9.683902561664581299e-02,-1.558485507965087891e+00,6.773962378501892090e-01,1.111330389976501465e-01
-1.425370693206787109e+00,4.570478498935699463e-01,6.879605054855346680e-01,-1.833878159523010254e-01,2.048887163400650024e-01
3.833394944667816162e-01,-3.124014735221862793e-01,2.930850744247436523e+00,6.565014123916625977e-01,-3.555775880813598633e-01
1.559595614671707153e-01,4.015886038541793823e-02,-1.228923439979553223e+00,1.406335830688476562e+00,2.087637186050415039e-01
5.638175606727600098e-01,-6.469377279281616211e-01,5.986663103103637695e-01,1.123666167259216309e+00,1.438962817192077637e-01
2.936021685600280762e-01,2.984218485653400421e-02,-3.065763711929321289e-01,8.186151981353759766e-01,1.801396757364273071e-01
-1.188603043556213379e+00,4.582593962550163269e-02,9.852835536003112793e-01,-1.196159362792968750e+00,1.493413448333740234e-01
-2.557796053588390350e-02,4.218562841415405273e-01,1.605784773826599121e+00,-9.742812812328338623e-02,-4.156670570373535156e-01
-4.845768585801124573e-02,9.988951683044433594e-02,2.985008716583251953e+00,8.359677344560623169e-02,-4.123777151107788086e-01
4.589723050594329834e-01,3.873851001262664795e-01,2.673815727233886719e+00,-7.268176078796386719e-01,-3.169126808643341064e-01
3.050036132335662842e-01,-4.294862747192382812e-01,1.655821561813354492e+00,-1.535110473632812500e-01,-4.883758127689361572e-01
-4.693603515625000000e-02,-4.409932494163513184e-01,1.399732351303100586e+00,4.458684921264648438e-01,3.132393062114715576e-01
-3.355427086353302002e-01,7.027104496955871582e-02,2.599788904190063477e-01,-7.698744535446166992e-01,-1.793241649866104126e-01
-3.385869860649108887e-01,5.693303346633911133e-01,4.876444339752197266e-01,6.077372431755065918e-01,4.279974400997161865e-01
4.336221516132354736e-01,4.333173036575317383e-01,6.950056552886962891e-01,1.845624089241027832e+00,-1.548769026994705200e-01
4.955900087952613831e-02,-6.160624027252197266e-01,9.624156355857849121e-01,8.906930685043334961e-01,4.655875861644744873e-01
-2.387437075376510620e-01,-5.067703723907470703e-01,1.372497439384460449e+00,-4.913972914218902588e-01,9.741989523172378540e-02
-6.900617480278015137e-01,9.886247664690017700e-02,-3.895340114831924438e-02,-1.878588438034057617e+00,-1.277900040149688721e-01
7.667454481124877930e-01,6.533692479133605957e-01,5.462147593498229980e-01,5.660129245370626450e-03,4.324090480804443359e-01
-1.135784313082695007e-01,2.239986062049865723e-01,-2.773922383785247803e-01,7.654209434986114502e-02,-3.237196505069732666e-01
4.664678871631622314e-01,2.146439105272293091e-01,4.118917286396026611e-01,-4.874366223812103271e-01,-3.351405858993530273e-01
5.223709940910339355e-01,1.070622429251670837e-01,-4.334021210670471191e-01,-1.769640684127807617e+00,1.754302829504013062e-01
3.569703400135040283e-01,8.065456748008728027e-01,-6.910762935876846313e-02,-1.367444634437561035e+00,3.618303239345550537e-01
1.681176424026489258e-01,8.036178946495056152e-01,9.389394521713256836e-01,-8.601173162460327148e-01,6.651466488838195801e-01
-2.974886596202850342e-01,1.724767237901687622e-01,5.849744677543640137e-01,1.144650340080261230e+00,3.724278807640075684e-01
-1.416907191276550293e+00,-5.351200103759765625e-01,1.138766884803771973e+00,-5.894103646278381348e-01,1.840227842330932617e-02
-1.342072039842605591e-01,-5.698331594467163086e-01,8.664698153734207153e-02,-1.727010130882263184e+00,-5.597969293594360352e-01
4.142841100692749023e-01,6.975957751274108887e-01,5.293343067169189453e-01,-2.334758639335632324e-02,6.243613958358764648e-01
-5.244572162628173828e-01,4.927203655242919922e-01,1.793306827545166016e+00,-6.202626824378967285e-01,-3.701512813568115234e-01
7.573454380035400391e-01,-1.771988719701766968e-01,1.628988623619079590e+00,1.665523171424865723e+00,-3.254110515117645264e-01
-3.738347813487052917e-02,3.224388659000396729e-01,-8.213905692100524902e-01,-4.564911127090454102e-01,2.620084583759307861e-01
-6.372154951095581055e-01,-6.626365333795547485e-02,9.195983409881591797e-01,4.525407850742340088e-01,-5.047097206115722656e-01
1.439106464385986328e-01,-2.430484741926193237e-01,1.535767197608947754e+00,2.553123794496059418e-02,3.471181988716125488e-01
-1.421983391046524048e-01,-6.523992866277694702e-02,1.626143455505371094e+00,-4.241744279861450195e-01,-6.033981442451477051e-01
2.873832583427429199e-01,-5.852462649345397949e-01,1.799311757087707520e+00,-1.848160773515701294e-01,-5.292214155197143555e-01
-2.116603136062622070e+00,-6.458732485771179199e-01,1.353088617324829102e+00,-1.177080795168876648e-01,5.619379878044128418e-02
8.720024228096008301e-01,-3.701163828372955322e-01,2.487867176532745361e-01,1.511201143264770508e+00,1.491179913282394409e-01
7.670611739158630371e-01,5.001130104064941406e-01,1.057587385177612305e+00,-8.908923268318176270e-01,-1.402809470891952515e-01
2.736378610134124756e-01,-4.319297969341278076e-01,3.777544796466827393e-01,9.475710391998291016e-01,-4.303976595401763916e-01
4.347047954797744751e-02,5.021066218614578247e-02,2.447207450866699219e+00,-2.459077239036560059e-01,-3.315152823925018311e-01
2.162284404039382935e-01,4.418656229972839355e-01,-2.225890196859836578e-02,-2.366975069046020508e+00,2.271090447902679443e-01
1.157966852188110352e-01,5.545023679733276367e-01,6.398052573204040527e-01,6.803407073020935059e-01,6.033062934875488281e-01
7.923325300216674805e-01,4.274553954601287842e-01,2.429177910089492798e-01,-2.212300747632980347e-01,3.171222507953643799e-01
3.243071436882019043e-01,5.034529566764831543e-01,1.850882917642593384e-01,1.193052768707275391e+00,5.120894312858581543e-01
-7.287414073944091797e-01,-8.124281764030456543e-01,-8.813729509711265564e-03,1.431248903274536133e+00,-2.764677703380584717e-01
-7.421246170997619629e-02,4.472665488719940186e-01,1.018353462219238281e+00,9.723318368196487427e-02,6.759485602378845215e-01
7.355861663818359375e-01,7.572687268257141113e-01,2.771067023277282715e-01,-1.054077982902526855e+00,4.234708547592163086e-01
-2.278253585100173950e-01,5.112857222557067871e-01,-4.010239541530609131e-01,1.724405646324157715e+00,2.375110983848571777e-02
2.389383018016815186e-01,2.401777803897857666e-01,2.395656347274780273e+00,-6.956965923309326172e-01,-4.107140302658081055e-01
2.337058335542678833e-01,3.634758889675140381e-01,-2.379169315099716187e-01,-5.899110436439514160e-02,3.230574429035186768e-01
-4.348438680171966553e-01,-3.116791844367980957e-01,-1.769103258848190308e-01,1.551503181457519531e+00,2.502560615539550781e-01
-6.747285276651382446e-02,-6.374373435974121094e-01,8.288581371307373047e-01,7.849524617195129395e-01,1.864610463380813599e-01
1.624438315629959106e-01,2.624033717438578606e-03,-3.003491163253784180e-01,-5.352435111999511719e-01,-1.975973509252071381e-02
1.280429512262344360e-01,-1.241122931241989136e-02,1.112769484519958496e+00,-1.545389771461486816e+00,-4.442082643508911133e-01
1.494522452354431152e+00,-3.498770296573638916e-01,6.258851382881402969e-03,9.610494971275329590e-01,1.634718328714370728e-01
-3.736281767487525940e-02,7.917851209640502930e-02,-1.870004296302795410e+00,5.300529003143310547e-01,5.917944386601448059e-02
-2.954248487949371338e-01,1.399531364440917969e-01,3.400290012359619141e-01,-1.643061995506286621e+00,-3.498979210853576660e-01
-2.868511676788330078e-01,-2.480434924364089966e-01,1.668880105018615723e+00,-1.114750385284423828e+00,-9.648465551435947418e-03
-1.120179057121276855e+00,3.134506568312644958e-02,-6.929246187210083008e-01,1.331398606300354004e+00,2.075545489788055420e-02
-1.137840986251831055e+00,-6.031606197357177734e-01,1.188215732574462891e+00,-2.211084514856338501e-01,7.606773078441619873e-02
-4.897338449954986572e-01,-6.157417297363281250e-01,4.051283299922943115e-01,-3.064520359039306641e+00,-2.846806943416595459e-01
3.748704791069030762e-01,1.809825152158737183e-01,-6.408126652240753174e-02,-1.558924466371536255e-01,5.362233147025108337e-02
-9.199922531843185425e-02,3.733160793781280518e-01,6.541910171508789062e-01,-2.101888656616210938e+00,2.889822423458099365e-01
5.566406250000000000e-01,-2.334243953227996826e-01,1.100024674087762833e-02,-8.465505838394165039e-01,-1.004117280244827271e-01
6.022177338600158691e-01,5.940712094306945801e-01,-2.904525026679039001e-02,1.399519681930541992e+00,5.870557427406311035e-01
7.834084033966064453e-01,-1.139711380004882812e+00,2.606094181537628174e-01,-8.032078742980957031e-01,1.297323219478130341e-02
2.454176694154739380e-01,6.269915699958801270e-01,4.431773349642753601e-02,-1.060180544853210449e+00,6.212683320045471191e-01
-3.786639571189880371e-01,4.167547523975372314e-01,1.038905382156372070e+00,7.526952773332595825e-02,4.448333084583282471e-01
-5.798753499984741211e-01,2.372451275587081909e-01,1.029003039002418518e-01,1.687251925468444824e-01,1.532091647386550903e-01
1.715953499078750610e-01,8.438919782638549805e-01,2.957143187522888184e-01,1.386095881462097168e+00,1.644204109907150269e-01
-1.194161176681518555e-02,1.664160867221653461e-03,2.702164947986602783e-01,-5.179446935653686523e-02,1.957578770816326141e-02
3.254610598087310791e-01,1.577485650777816772e-01,-1.062893033027648926e+00,8.916295766830444336e-01,1.729878634214401245e-01
-2.571279704570770264e-01,2.851376533508300781e-01,2.213681459426879883e+00,-4.584830403327941895e-01,-2.608412206172943115e-01
3.181528151035308838e-01,9.660413265228271484e-01,2.306469529867172241e-01,-6.305743008852005005e-02,3.150590956211090088e-01
2.104616612195968628e-01,-1.746282353997230530e-02,8.572693467140197754e-01,2.208028733730316162e-01,4.033729135990142822e-01
2.358164936304092407e-01,4.051902294158935547e-01,2.809661030769348145e-01,3.529259562492370605e-01,4.256739020347595215e-01
-7.227640748023986816e-01,-3.955316245555877686e-01,-6.780722737312316895e-01,-1.883293032646179199e+00,1.462917774915695190e-02
-4.272202551364898682e-01,3.548510670661926270e-01,5.314400196075439453e-01,-7.773797512054443359e-01,2.887305915355682373e-01
-2.241554437205195427e-03,-1.934721618890762329e-01,5.521617829799652100e-03,-2.450963258743286133e+00,-1.114253029227256775e-01
-1.337919950485229492e+00,2.882188260555267334e-01,7.457557916641235352e-01,5.762013792991638184e-01,3.401222527027130127e-01
9.342814981937408447e-02,3.438010215759277344e-01,9.957424402236938477e-01,-6.245119571685791016e-01,-4.859637916088104248e-01
2.495582401752471924e-01,-6.029071807861328125e-01,-1.370057940483093262e+00,1.648997426033020020e+00,4.936239495873451233e-02
8.540436029434204102e-01,-7.375305891036987305e-01,1.570511907339096069e-01,2.212235450744628906e+00,1.111718863248825073e-01
2.264377176761627197e-01,4.855366647243499756e-01,1.486180663108825684e+00,1.769901394844055176e+00,-1.416686773300170898e-01
5.299819111824035645e-01,6.103846803307533264e-02,4.248365759849548340e-01,1.985457658767700195e+00,-1.903119832277297974e-01
5.005083084106445312e-01,-3.926829621195793152e-02,5.774643421173095703e-01,-1.350167036056518555e+00,-6.035832166671752930e-01
-1.620321720838546753e-01,1.105331182479858398e-01,5.982177853584289551e-01,-3.101550340652465820e-01,6.034798547625541687e-02
2.088541686534881592e-01,2.872297763824462891e-01,6.517636775970458984e-01,9.195028543472290039e-01,5.179073214530944824e-01
3.796068727970123291e-01,-3.018814139068126678e-02,4.127864837646484375e-01,3.730881512165069580e-01,1.070073768496513367e-01
-1.249889731407165527e-01,1.187461689114570618e-01,-1.359731405973434448e-01,5.577049031853675842e-02,-3.255924284458160400e-01
4.099285900592803955e-01,1.009696349501609802e-01,-1.537420868873596191e+00,1.713499903678894043e+00,1.921621859073638916e-01
