-2.054504863917827606e-02,2.149335294961929321e-02,3.439266979694366455e-02,3.826065687462687492e-03,-2.375184930860996246e-02,-1.892401836812496185e-02,-4.677246510982513428e-02,2.438501082360744476e-02,-1.973483338952064514e-02,1.283622160553932190e-02,-4.377293866127729416e-03,-1.584520004689693451e-02,-4.387013614177703857e-03,3.658379241824150085e-02,2.175347134470939636e-02,-1.292272377759218216e-02,-3.023076616227626801e-02,4.368137940764427185e-02,2.880624495446681976e-02,-5.410089716315269470e-02,1.054564304649829865e-02,-3.375960513949394226e-02,2.244294248521327972e-02,-2.340345643460750580e-02,4.841414280235767365e-03,2.698953635990619659e-02,-2.782127447426319122e-02,2.332986705005168915e-02,1.060147024691104889e-02,2.441482059657573700e-02,2.237306907773017883e-02,-1.542068086564540863e-02,3.405598923563957214e-02,-8.957166224718093872e-03,-3.801101818680763245e-02,2.272654883563518524e-02,-3.111025132238864899e-02,-3.398111090064048767e-02,1.281923148781061172e-03,-5.015463382005691528e-02,-3.025011345744132996e-02,2.936576679348945618e-02,5.928655155003070831e-03,2.698442339897155762e-02,-3.500753268599510193e-02,1.957080326974391937e-02,-4.532211925834417343e-03,-1.186402421444654465e-02,-8.361549116671085358e-03,-2.414214424788951874e-02,3.498559072613716125e-02,-1.011469494551420212e-02,-5.286037921905517578e-02,-3.672903776168823242e-02,-8.361220243386924267e-04,-1.089004334062337875e-02,3.374226624146103859e-03,-2.584294602274894714e-02,-9.279343299567699432e-03,-4.900713637471199036e-02,-1.234412007033824921e-02,-2.816274296492338181e-03,1.275873836129903793e-02,-1.824543811380863190e-02,-9.067643433809280396e-03,4.189317300915718079e-02,3.853229433298110962e-02,-2.493990771472454071e-02,3.293760120868682861e-02,3.477116301655769348e-02,-8.270346559584140778e-03,-1.472822669893503189e-02,2.734714560210704803e-02,2.903150953352451324e-02,-4.117234423756599426e-02,-4.338346794247627258e-02,-2.881131879985332489e-02,-1.487296726554632187e-02,-1.593542657792568207e-02,5.121538788080215454e-02,-2.920049056410789490e-02,1.970812864601612091e-02,-2.617306262254714966e-02,-4.895174503326416016e-02,1.889403164386749268e-02,-5.008118599653244019e-02,-1.061970251612365246e-03,4.519389197230339050e-02,9.841848164796829224e-03,3.557326272130012512e-02,2.231200784444808960e-02,1.813179440796375275e-02,-1.898932270705699921e-02,9.163322858512401581e-03,3.640037775039672852e-02,3.402800112962722778e-02,-2.719518728554248810e-02,3.799976781010627747e-02,1.413029269315302372e-03,-3.675429895520210266e-02,2.333073318004608154e-02,3.747814893722534180e-02,7.403427152894437313e-04,-3.480196744203567505e-02,2.382223866879940033e-02,-2.548795007169246674e-02,-5.150823667645454407e-02,2.057514339685440063e-02,-1.038612425327301025e-02,6.270196288824081421e-03,3.901740163564682007e-02,3.970594331622123718e-02,3.671560809016227722e-02,-5.547484382987022400e-02,-9.114748798310756683e-03,-3.221286833286285400e-02,-7.941564545035362244e-03,-5.455791484564542770e-03,3.410900942981243134e-03,-4.704638570547103882e-02,2.633230574429035187e-02,-1.491479109972715378e-02,-1.510016340762376785e-02,-3.811208531260490417e-02,2.652744762599468231e-02,-4.025012627243995667e-02,-2.024980448186397552e-02,1.137225329875946045e-02,4.200838506221771240e-02,-4.872166737914085388e-02,5.348909180611371994e-03,2.445560321211814880e-02,9.161154739558696747e-03,-1.902492903172969818e-02,3.541882336139678955e-02,-1.587372459471225739e-02,3.371034935116767883e-02,4.150070622563362122e-02,-4.504867270588874817e-02,-6.961944047361612320e-03,2.839471027255058289e-02,4.891650751233100891e-02,-5.281437560915946960e-02,-4.494762420654296875e-02,7.375620771199464798e-03,-4.476229473948478699e-02,-4.144377633929252625e-02,-6.555839907377958298e-03,-7.562816143035888672e-03,-2.018184401094913483e-02,-2.202706597745418549e-02,-4.840775392949581146e-03,4.148919135332107544e-02,4.756044968962669373e-02,-2.596108615398406982e-02,4.475148022174835205e-02,4.518058616667985916e-03,3.980931639671325684e-02,4.501004889607429504e-02,-3.848939388990402222e-02,1.111441478133201599e-02,2.307300164829939604e-04,-2.100673876702785492e-02,-4.630466923117637634e-02,-1.641855761408805847e-02,1.951849088072776794e-02,-2.912336960434913635e-02,9.812861680984497070e-03,-7.126695010811090469e-03,-5.341862514615058899e-02,1.595346722751855850e-03,-5.416617915034294128e-02,-4.603341221809387207e-02,2.112004160881042480e-02,-4.155780747532844543e-02,-2.459291182458400726e-02,2.563961595296859741e-02,2.425155043601989746e-02,-3.332812339067459106e-02,-1.169244013726711273e-02,4.472612589597702026e-02,-9.452830068767070770e-03,2.946621179580688477e-02,-4.069130867719650269e-02,1.237727794796228409e-02,-5.257742851972579956e-02,-3.258652612566947937e-02,-2.245011553168296814e-02,-1.166565716266632080e-02,-2.867805399000644684e-02,-3.933049365878105164e-02,-7.082300726324319839e-03,-2.004542388021945953e-02,-2.763816528022289276e-02,4.206277802586555481e-02,2.605801820755004883e-02,1.018950529396533966e-02,-3.571426868438720703e-02,4.180496558547019958e-02,-4.380938038229942322e-02,1.231076475232839584e-02,3.358269482851028442e-02,4.437636956572532654e-02,1.220783311873674393e-02,-5.434902012348175049e-02,-5.486301332712173462e-02,3.330591320991516113e-02,7.218031678348779678e-03,2.843988128006458282e-02,-2.731134742498397827e-02,-5.214699357748031616e-02,-4.649283364415168762e-03,-2.300153672695159912e-02,3.348043188452720642e-02,3.791631385684013367e-02,-3.559927269816398621e-02,-9.849865920841693878e-03,4.191703349351882935e-02,-2.312894351780414581e-02,-4.553372040390968323e-02,-2.545508369803428650e-02,-8.478782139718532562e-03,-4.950971901416778564e-02,2.077341638505458832e-02,-1.214701565913856030e-03,-2.825124934315681458e-02,3.022852470166981220e-04,2.191087603569030762e-02,-5.393444746732711792e-02,-5.512106046080589294e-02,-9.660941548645496368e-03,3.606619779020547867e-03,-2.698564343154430389e-02,1.307693682610988617e-02,-5.812823656015098095e-04,-1.053109019994735718e-02,-4.997277632355690002e-02,-4.711918160319328308e-02,-5.057301744818687439e-02,-3.993588965386152267e-03,2.489579468965530396e-02,-5.377197265625000000e-02,-1.365692634135484695e-02,3.341228887438774109e-02,1.243220269680023193e-02,-2.994146384298801422e-02,-4.272639751434326172e-03,-4.133728146553039551e-02,-1.621668692678213120e-03,3.902837261557579041e-02,-3.682991117238998413e-02,2.966880425810813904e-02,-4.820121079683303833e-02,-2.605739235877990723e-02,-5.097847804427146912e-02,3.524051234126091003e-02,-2.352932840585708618e-02,-2.383510582149028778e-02,-4.132433980703353882e-02,-4.872372373938560486e-02,-4.179479554295539856e-02,-5.912706255912780762e-03,-4.431910812854766846e-02,-2.336535975337028503e-02,-3.641417622566223145e-02,-6.714771036058664322e-03,-4.588270187377929688e-02,-9.535848163068294525e-03,-3.937257826328277588e-02,-5.025308579206466675e-02,-5.143566057085990906e-02,4.229578003287315369e-02,-3.953408915549516678e-03,-4.366644099354743958e-02,3.989939391613006592e-02,-3.430517390370368958e-02,-7.149242796003818512e-03,2.717111818492412567e-02,5.446859169751405716e-03,-4.059330560266971588e-03,1.516756974160671234e-02,-9.833670221269130707e-03,-1.310655102133750916e-02,3.616300225257873535e-02,-1.175877451896667480e-02,-1.677543483674526215e-02,-1.243190467357635498e-02,1.617294736206531525e-02,-3.134870529174804688e-02,2.156661450862884521e-02,3.430707380175590515e-02,3.814950212836265564e-02,1.258215121924877167e-02,8.361169137060642242e-03,-1.852732151746749878e-02,1.349060330539941788e-02,1.249368116259574890e-02,-2.267290838062763214e-02,-4.066641256213188171e-02,1.638835109770298004e-02,1.755132153630256653e-02,-5.042510852217674255e-02,-1.524685323238372803e-02,-2.851999364793300629e-02,3.706584498286247253e-02,-5.085378140211105347e-02,-3.799288347363471985e-02,-1.782631850801408291e-03,1.753343082964420319e-02,-7.879180833697319031e-03,2.939224243164062500e-02,-3.444356471300125122e-02,-2.262928895652294159e-02,2.691464126110076904e-02,1.284355949610471725e-02,-2.540518762543797493e-03,2.651944570243358612e-02,-9.428908117115497589e-03,1.854038238525390625e-02,-9.842334315180778503e-03,2.515764348208904266e-02,3.974368050694465637e-02,-1.798131503164768219e-03,-1.203651353716850281e-02,-2.745621278882026672e-02,-3.831182047724723816e-02,-5.473107099533081055e-02,1.630676351487636566e-02,-1.852395012974739075e-02,-8.658016100525856018e-03,-4.091678932309150696e-02,-2.717308234423398972e-03,-3.805938363075256348e-02,-2.660966478288173676e-02,-3.364446759223937988e-02,5.829395260661840439e-03,2.474421402439475060e-03,-1.103454828262329102e-02,-4.381487891077995300e-02,-2.056555077433586121e-02,1.704168319702148438e-02,8.212066255509853363e-03,-1.698094606399536133e-02,-5.283232405781745911e-02,-1.840187236666679382e-02,2.789752371609210968e-02,-5.398659966886043549e-03,-4.102648794651031494e-02,-4.547748714685440063e-03,1.207732036709785461e-02,-1.471761520951986313e-02,-3.861656785011291504e-02,-2.955049043521285057e-03,1.787802763283252716e-02,3.869653493165969849e-02,-5.805570166558027267e-03,-3.825743123888969421e-02,-3.892974928021430969e-02,8.848947472870349884e-03,3.621691092848777771e-02,-4.491051658987998962e-02,2.135073207318782806e-02,-6.798877380788326263e-03,-4.364746063947677612e-02,-3.916614502668380737e-02,4.090370144695043564e-03,3.226690692827105522e-03,-3.688306733965873718e-02,-2.638022601604461670e-02,-4.465742409229278564e-02,-1.065845834091305733e-03,-2.816131338477134705e-02,4.266227036714553833e-02,1.225814595818519592e-02,-1.766893826425075531e-02,4.022440314292907715e-02,-2.975534275174140930e-02,-2.624276652932167053e-02,-2.302640117704868317e-02,4.132432118058204651e-02,-3.579719737172126770e-02,-1.788215711712837219e-02,-4.781643301248550415e-02,-5.040657892823219299e-02,-2.233395352959632874e-02,-1.684796251356601715e-02,2.859884500503540039e-02,3.506639972329139709e-02,-1.280700135976076126e-02,1.616711542010307312e-02,-2.887999080121517181e-02,1.818968914449214935e-02,9.814403019845485687e-03,-2.837594412267208099e-02,-9.430490434169769287e-03,2.861911058425903320e-02,3.961747884750366211e-02,3.824113309383392334e-02,2.243383042514324188e-02,3.386653214693069458e-02
-3.273047506809234619e-01,3.002672195434570312e-01,5.744166970252990723e-01,6.886452436447143555e-01,2.490084767341613770e-01,-8.171529769897460938e-01,-2.589930593967437744e-01,5.027729868888854980e-01,7.412467598915100098e-01,7.198595255613327026e-02,-4.117534160614013672e-01,9.932834506034851074e-01,-3.492710292339324951e-01,-1.022785305976867676e-01,-4.509149864315986633e-02,-1.563838958740234375e+00,-2.724161185324192047e-02,-1.898099333047866821e-01,1.083790510892868042e-01,-4.301712214946746826e-01,-1.660463213920593262e+00,-1.148592233657836914e-01,-1.238884687423706055e+00,3.154096901416778564e-01,-6.538302302360534668e-01,1.135385781526565552e-01,-3.463695943355560303e-02,5.485110878944396973e-01,-7.205073833465576172e-01,1.728708446025848389e-01,-9.365020990371704102e-01,6.760782003402709961e-02,-1.345834881067276001e-01,-1.337235569953918457e+00,-9.182290732860565186e-02,-5.543980598449707031e-01,7.914175838232040405e-02,-1.301137506961822510e-01,-2.447168827056884766e-01,-5.421074628829956055e-01,-2.037488371133804321e-01,9.161813855171203613e-01,5.074499249458312988e-01,-4.563033282756805420e-01,-9.654799699783325195e-01,3.108902573585510254e-01,-2.322088032960891724e-01,1.556315571069717407e-01,7.497675716876983643e-02,3.029092848300933838e-01,3.184297680854797363e-01,-8.198942244052886963e-02,7.658523321151733398e-02,-7.221585512161254883e-01,-5.595005154609680176e-01,-2.629553973674774170e-01,1.488085091114044189e-01,3.966974467039108276e-02,-6.134008169174194336e-01,-6.651257276535034180e-01,2.092717029154300690e-02,-7.224707603454589844e-01,-2.607704401016235352e-01,2.522015273571014404e-01,4.787277802824974060e-02,5.135337114334106445e-01,-7.103509902954101562e-01,8.004008233547210693e-02,4.045705199241638184e-01,8.629075437784194946e-02,1.628599315881729126e-01,-2.912715077400207520e-01,2.927897572517395020e-01,-2.755890786647796631e-01,-1.424238085746765137e-01,1.919219046831130981e-01,-2.113057851791381836e+00,2.557845711708068848e-01,-1.753507405519485474e-01,4.540976881980895996e-01,8.908717036247253418e-01,5.798401311039924622e-02,1.119531542062759399e-01,-6.017922163009643555e-01,-1.287391781806945801e+00,2.113029658794403076e-01,5.766157507896423340e-01,-4.932163953781127930e-01,-6.311857104301452637e-01,-2.895920723676681519e-02,-7.518185377120971680e-01,-4.882719367742538452e-02,-1.487126797437667847e-01,-2.722598314285278320e-01,1.011149138212203979e-01,-6.042809486389160156e-01,3.994274735450744629e-01,7.245093584060668945e-02,-1.252673745155334473e+00,-7.404331117868423462e-02,-1.402674168348312378e-01,2.515443563461303711e-01,-6.565957665443420410e-01,6.302571296691894531e-01,5.048358347266912460e-03,-4.109056591987609863e-01,2.858072817325592041e-01,2.458554208278656006e-01,-2.798606455326080322e-01,7.423084974288940430e-02,6.687299013137817383e-01,-1.564593672752380371e+00,-2.001857161521911621e-01,-2.956450581550598145e-01,-5.213803052902221680e-01,-4.908971488475799561e-01,2.538573145866394043e-01,-8.043562173843383789e-01,-1.328169275075197220e-02,-6.196301802992820740e-02,4.938512742519378662e-01,-1.514611482620239258e+00,-9.520656466484069824e-01,-5.239626392722129822e-03,4.154682159423828125e-01,6.826694309711456299e-02,-1.347706079483032227e+00,-1.336625456809997559e+00,3.221920728683471680e-01,-1.623423576354980469e+00,8.542859554290771484e-01,-3.252393901348114014e-01,1.443435996770858765e-01,2.411858588457107544e-01,5.720541253685951233e-02,-8.755676150321960449e-01,-1.217191934585571289e+00,-1.359295248985290527e-01,-1.107736110687255859e+00,9.962146729230880737e-02,-5.209035277366638184e-01,-6.168655119836330414e-03,-5.602050423622131348e-01,-1.725292801856994629e+00,6.041711568832397461e-02,9.477310180664062500e-01,6.568486988544464111e-02,3.950487971305847168e-01,-8.954194933176040649e-02,-6.182628870010375977e-01,-4.134940505027770996e-01,-5.836079642176628113e-02,2.796736359596252441e-01,-1.185504674911499023e+00,-1.838514506816864014e-01,2.946662902832031250e-02,-2.448701560497283936e-01,3.144729137420654297e-01,-7.932513952255249023e-01,-7.056712508201599121e-01,-8.536610007286071777e-01,-1.738226860761642456e-01,-2.047458738088607788e-01,-3.921244442462921143e-01,6.987344622611999512e-01,6.861206889152526855e-01,3.670885562896728516e-01,-7.000892758369445801e-01,2.216562330722808838e-01,-4.845733940601348877e-01,1.202964782714843750e-01,-1.904324531555175781e+00,2.844142019748687744e-01,-5.711618661880493164e-01,-6.316143870353698730e-01,-4.490223228931427002e-01,-1.025980949401855469e+00,2.143350541591644287e-01,-9.581497311592102051e-01,-1.462693214416503906e-01,-8.820870518684387207e-01,2.839123904705047607e-01,-7.267829775810241699e-01,-9.256319403648376465e-01,-1.313957422971725464e-01,-1.099854707717895508e+00,-1.239386424422264099e-01,1.673315614461898804e-01,1.894320547580718994e-01,-1.838246136903762817e-01,4.673484265804290771e-01,-5.027403235435485840e-01,-5.385179519653320312e-01,-5.607559084892272949e-01,-2.438810840249061584e-02,3.317337110638618469e-02,-1.412707448005676270e+00,4.755762815475463867e-01,-2.034114897251129150e-01,-6.840723752975463867e-02,5.639742016792297363e-01,-4.559143483638763428e-01,-1.158672928810119629e+00,-6.884759068489074707e-01,-3.508301079273223877e-01,-2.726911306381225586e-01,1.518114954233169556e-01,-6.553792357444763184e-01,-2.901637852191925049e-01,-4.852375984191894531e-01,-1.042038321495056152e+00,-2.302877306938171387e-01,-1.160661458969116211e+00,6.987395137548446655e-02,-6.045091152191162109e-01,2.958456873893737793e-01,-1.296217203140258789e+00,-3.016450405120849609e+00,1.661737114191055298e-01,3.615168631076812744e-01,1.432520151138305664e+00,2.264820933341979980e-01,2.178090214729309082e-01,-1.135596513748168945e+00,6.512677669525146484e-01,9.112953394651412964e-02,2.000044435262680054e-01,4.249168932437896729e-02,-6.777397394180297852e-01,-7.165986299514770508e-01,-1.186204850673675537e-01,-3.277045488357543945e-01,-5.987069606781005859e-01,3.532882034778594971e-01,-1.928958058357238770e+00,-5.429252982139587402e-01,-1.252991706132888794e-02,-1.103029012680053711e+00,-1.861336082220077515e-01,-6.006928160786628723e-02,-7.742260694503784180e-01,6.939090490341186523e-01,2.066716998815536499e-01,2.353980578482151031e-02,-4.400351345539093018e-01,-2.027641534805297852e+00,1.546216546557843685e-03,1.516888886690139771e-01,-1.445020884275436401e-01,-7.300047278404235840e-01,3.410558402538299561e-01,-1.136561870574951172e+00,-3.783876821398735046e-02,4.609563574194908142e-02,-5.665248632431030273e-02,-8.874940276145935059e-01,-2.988395988941192627e-01,-5.295476913452148438e-01,-1.330416679382324219e+00,5.751983821392059326e-02,4.210944771766662598e-01,-4.933241009712219238e-01,1.301038414239883423e-01,-2.635914087295532227e-01,-1.642024874687194824e+00,3.098838627338409424e-01,-9.037567302584648132e-03,-1.446498274803161621e+00,-6.865829825401306152e-01,-7.948330789804458618e-02,-1.852860301733016968e-01,-5.361844897270202637e-01,4.040424246340990067e-03,-5.312490835785865784e-02,-1.181888461112976074e+00,-5.839300751686096191e-01,-1.743026256561279297e+00,-9.984281659126281738e-01,-5.596276521682739258e-01,-1.971017599105834961e+00,-4.726615250110626221e-01,2.968564629554748535e-01,8.855146914720535278e-02,4.047563970088958740e-01,-1.388286709785461426e+00,4.794141352176666260e-01,-5.727450251579284668e-01,-2.632930576801300049e-01,-6.915833950042724609e-01,-1.538148969411849976e-01,7.276433110237121582e-01,3.350222408771514893e-01,4.942073225975036621e-01,7.034503817558288574e-01,-4.256123304367065430e-02,2.957177758216857910e-01,-8.576074242591857910e-01,-1.550965607166290283e-01,5.652562975883483887e-01,-1.224630232900381088e-02,-5.262557864189147949e-01,1.586416549980640411e-02,3.584575951099395752e-01,-4.696716368198394775e-01,1.160261407494544983e-01,2.666255831718444824e-01,-5.144247412681579590e-01,-1.407677888870239258e+00,-1.092839956283569336e+00,-2.590028345584869385e-01,-9.294164925813674927e-02,-2.110931158065795898e+00,-5.428902506828308105e-01,-1.055702328681945801e+00,-5.396210551261901855e-01,-3.281663358211517334e-01,3.637737035751342773e-01,-1.244975686073303223e+00,-1.965272426605224609e-01,-2.009207755327224731e-02,-1.046739578247070312e+00,1.019994378089904785e+00,-5.527198314666748047e-01,5.161312595009803772e-02,5.696692466735839844e-01,-3.857983946800231934e-01,6.721908450126647949e-01,-4.500421881675720215e-01,2.499893158674240112e-01,4.856492877006530762e-01,2.232940793037414551e-01,6.030384302139282227e-01,-5.800662636756896973e-01,-4.105129837989807129e-01,-8.707912638783454895e-04,-2.906045019626617432e-01,-6.190115809440612793e-01,1.290228217840194702e-01,-1.960280090570449829e-01,4.593733549118041992e-01,-1.885201483964920044e-01,-4.848319888114929199e-01,-5.776168704032897949e-01,-5.417770519852638245e-02,-9.275670349597930908e-02,-2.689877152442932129e-01,-2.765828371047973633e-01,3.089384734630584717e-01,-2.063034296035766602e+00,4.854892492294311523e-01,-1.964628100395202637e-01,-5.433667078614234924e-02,1.127003058791160583e-01,-1.006142258644104004e+00,-1.358433604240417480e+00,-3.518837690353393555e-01,8.757222443819046021e-02,-1.621160954236984253e-01,-5.613819360733032227e-01,-3.609212338924407959e-01,-1.241254359483718872e-01,2.119136601686477661e-01,1.201284080743789673e-01,-4.190075993537902832e-01,-8.053401112556457520e-01,5.605669617652893066e-01,-1.450686007738113403e-01,-9.216950535774230957e-01,1.210620552301406860e-01,2.522404789924621582e-01,-2.121525406837463379e-01,6.384204030036926270e-01,-1.679409891366958618e-01,1.341697424650192261e-01,-1.138802051544189453e+00,-7.379822432994842529e-02,-1.436592936515808105e+00,1.705155521631240845e-01,5.358946919441223145e-01,-2.612302899360656738e-01,-6.899366974830627441e-01,-7.019318938255310059e-01,1.170217841863632202e-01,-1.077189922332763672e+00,1.644857227802276611e-01,1.293058991432189941e-01,-1.752384006977081299e-01,3.703519403934478760e-01,-1.308388471603393555e+00,3.967671990394592285e-01,-8.184602856636047363e-01,-1.474916577339172363e+00,-7.562378048896789551e-02,2.485451251268386841e-01,4.668312370777130127e-01,-7.367205619812011719e-02,1.023988351225852966e-01,-1.092590212821960449e+00,3.086813986301422119e-01,-7.483965158462524414e-01
3.657421842217445374e-02,4.382082726806402206e-03,-3.056184388697147369e-02,-2.996183000504970551e-02,3.263378515839576721e-02,1.488605700433254242e-02,8.397876285016536713e-03,1.151366718113422394e-02,-9.892571717500686646e-03,-2.966083772480487823e-02,-1.525456923991441727e-02,-2.116149850189685822e-02,-1.886208914220333099e-02,-4.458833951503038406e-03,-4.033616185188293457e-02,-2.837855368852615356e-02,-5.668815970420837402e-02,-3.035866469144821167e-02,-2.879510261118412018e-02,2.236787788569927216e-02,-2.061183936893939972e-02,-4.048412293195724487e-02,-6.275294348597526550e-03,2.007349953055381775e-02,1.890162937343120575e-02,2.991867437958717346e-02,2.704693749547004700e-02,-4.837441071867942810e-02,2.637610211968421936e-02,-5.275198072195053101e-02,2.863692119717597961e-02,2.724346704781055450e-02,-3.470115736126899719e-02,-3.182624652981758118e-02,-6.000726297497749329e-02,4.390937462449073792e-02,-6.089200265705585480e-03,1.106969267129898071e-02,-5.513443425297737122e-02,-5.383143201470375061e-02,1.566903851926326752e-02,2.846780605614185333e-02,2.703258208930492401e-02,-5.223745107650756836e-02,-3.896268829703330994e-02,-4.125719889998435974e-02,1.721924752928316593e-03,2.623838372528553009e-02,-1.074622757732868195e-02,6.700845435261726379e-03,4.121406003832817078e-02,-3.941619023680686951e-02,3.099712356925010681e-02,2.841699495911598206e-02,1.531460508704185486e-02,3.466731682419776917e-02,-3.703488036990165710e-02,-2.301486581563949585e-02,2.805938571691513062e-02,-4.252659622579813004e-03,-5.950630083680152893e-02,3.177384613081812859e-03,-4.393580183386802673e-02,1.623090542852878571e-02,-6.258538365364074707e-02,1.455432176589965820e-02,-4.537220671772956848e-02,-4.651398956775665283e-02,-2.444364689290523529e-02,-4.827228933572769165e-02,-1.473749638535082340e-03,8.682983927428722382e-03,-1.564189232885837555e-02,-4.753443598747253418e-02,2.346257306635379791e-02,-2.270911447703838348e-02,2.935365587472915649e-02,-4.819813743233680725e-02,-5.177441611886024475e-02,-4.836506024003028870e-02,8.512680418789386749e-03,3.281303495168685913e-02,3.734837844967842102e-02,-2.652464900165796280e-03,-1.506977993994951248e-02,2.514702454209327698e-02,6.944534368813037872e-03,7.448048330843448639e-03,1.378522720187902451e-03,1.098668668419122696e-02,-2.093881182372570038e-02,1.372863724827766418e-02,1.845864206552505493e-02,-2.055557072162628174e-02,-3.500477969646453857e-02,-2.451711893081665039e-02,-2.309388481080532074e-02,-4.483257234096527100e-02,-2.611886151134967804e-02,-4.787864908576011658e-02,4.399615898728370667e-02,-5.026698485016822815e-02,-2.536789141595363617e-02,3.104557469487190247e-02,-1.615806855261325836e-02,-9.908257983624935150e-03,4.307143855839967728e-03,-2.766417339444160461e-02,-5.548877269029617310e-02,1.487065386027097702e-02,2.848275192081928253e-02,4.821278154850006104e-03,-1.796654984354972839e-02,3.086288692429661751e-03,-2.780274301767349243e-02,-3.443385660648345947e-02,-5.851627141237258911e-02,-1.428371947258710861e-02,1.954526267945766449e-02,-5.488272383809089661e-02,-4.100491479039192200e-02,-2.969887852668762207e-02,-5.279047042131423950e-02,2.451426163315773010e-02,-3.629858046770095825e-02,3.658322244882583618e-02,2.140561863780021667e-02,-5.332767590880393982e-02,-2.641847915947437286e-02,2.144723897799849510e-03,-2.048130147159099579e-02,-6.367362290620803833e-02,-1.455647777765989304e-02,-6.666242610663175583e-03,-5.473918467760086060e-02,-9.556551463901996613e-03,-5.991259124130010605e-03,1.723044551908969879e-02,3.734851256012916565e-02,-6.554838269948959351e-02,-3.676737472414970398e-02,-4.813326150178909302e-02,-4.872434958815574646e-02,-1.231322530657052994e-03,-2.058677002787590027e-02,2.343211323022842407e-02,-2.536194212734699249e-02,1.758463121950626373e-02,1.676854118704795837e-02,3.762098029255867004e-02,3.894898667931556702e-02,9.250583127140998840e-03,-5.946171283721923828e-02,3.577437251806259155e-02,2.384387142956256866e-02,-2.847084216773509979e-02,-5.480611324310302734e-02,-2.313004340976476669e-03,8.177548646926879883e-03,-9.597750380635261536e-03,-6.263246387243270874e-02,-3.690554946660995483e-02,1.465108245611190796e-02,3.639156464487314224e-03,8.923650719225406647e-03,4.080039635300636292e-02,-1.840870827436447144e-02,-4.790192842483520508e-02,-8.019735105335712433e-03,-1.991403475403785706e-02,-4.302336310502141714e-05,-5.340062454342842102e-02,-8.245767094194889069e-03,-9.654586203396320343e-03,-3.039379976689815521e-02,-4.818001762032508850e-04,1.784536615014076233e-02,1.104718446731567383e-02,-1.204076129943132401e-02,1.758760958909988403e-02,7.039179559797048569e-03,1.674558385275304317e-03,2.224736846983432770e-02,2.563546039164066315e-02,-4.072552919387817383e-02,-2.263638743897899985e-04,6.589142605662345886e-03,-5.245807394385337830e-02,3.465205430984497070e-02,-1.855280995368957520e-02,-2.753203548491001129e-02,-7.727295625954866409e-03,-3.578413510695099831e-03,-8.631375618278980255e-03,-3.923986479640007019e-02,-1.517546176910400391e-02,-6.433746218681335449e-02,-5.076720565557479858e-02,-2.955769887194037437e-04,-3.349148854613304138e-02,1.719058491289615631e-02,1.223515253514051437e-02,-7.890530861914157867e-03,-5.488183721899986267e-02,-3.844289109110832214e-02,-3.422846645116806030e-02,-3.885905817151069641e-02,2.538547106087207794e-02,-3.233708906918764114e-03,-5.066082999110221863e-02,3.890018165111541748e-02,-2.210648730397224426e-02,-6.439185142517089844e-02,-5.345705896615982056e-02,3.404627740383148193e-02,-4.159304127097129822e-02,-2.969640865921974182e-02,1.006411295384168625e-02,-2.060850337147712708e-02,-4.073531180620193481e-02,-5.621932446956634521e-02,-4.006184637546539307e-02,2.072741091251373291e-02,-4.702823236584663391e-02,-2.712626755237579346e-02,4.353523254394531250e-03,1.777251251041889191e-02,-6.726291612721979618e-04,1.878407970070838928e-02,2.678520046174526215e-02,3.132137283682823181e-02,-2.606146968901157379e-02,-3.069137409329414368e-02,-4.027270898222923279e-02,2.706512436270713806e-02,-3.341394290328025818e-02,-3.077825531363487244e-02,-2.206408046185970306e-02,4.118925333023071289e-02,-1.371769700199365616e-02,-1.748611032962799072e-02,3.635283932089805603e-02,-1.864203810691833496e-02,-1.534503139555454254e-02,3.468652442097663879e-02,2.071069739758968353e-02,-1.932764612138271332e-02,-4.264307022094726562e-02,5.547610111534595490e-03,2.535362355411052704e-02,-1.002705004066228867e-02,-1.147130131721496582e-02,3.638880327343940735e-02,-3.166736662387847900e-02,-4.904911667108535767e-02,-3.547269478440284729e-02,-4.761655628681182861e-02,-6.253099441528320312e-02,-1.116651808843016624e-03,2.159037068486213684e-02,1.461702119559049606e-02,1.050891238264739513e-03,-3.778527677059173584e-02,-1.191018521785736084e-02,7.726332638412714005e-03,3.236920759081840515e-02,1.368419546633958817e-02,2.343529462814331055e-02,-2.473693154752254486e-02,1.960009522736072540e-02,-3.920599073171615601e-02,1.787056960165500641e-02,8.565027266740798950e-03,-2.338401228189468384e-02,4.517827648669481277e-03,1.975712366402149200e-02,4.214827902615070343e-03,9.825237095355987549e-03,-7.392258383333683014e-03,-4.784798622131347656e-02,-4.149759560823440552e-02,1.003974024206399918e-02,1.760784909129142761e-02,3.555930778384208679e-02,4.319126531481742859e-02,-7.235581520944833755e-03,3.626385331153869629e-02,-4.687622934579849243e-02,3.226058557629585266e-02,-4.712395370006561279e-02,-4.238303005695343018e-02,1.776111684739589691e-02,1.804625242948532104e-02,1.684908010065555573e-02,4.635818302631378174e-03,1.084112329408526421e-03,3.091785497963428497e-02,-1.403287053108215332e-02,-4.405291751027107239e-02,-3.725354745984077454e-02,-4.141588136553764343e-02,-6.175636872649192810e-02,-2.314944006502628326e-02,-1.849709427915513515e-03,1.900404132902622223e-02,2.751301601529121399e-02,8.542412891983985901e-03,-1.438242942094802856e-02,-2.146398089826107025e-02,-1.956369914114475250e-02,-3.709531575441360474e-02,-1.374899968504905701e-02,-2.248726785182952881e-02,-2.311942726373672485e-02,-3.734667971730232239e-02,-1.110560912638902664e-02,3.237994387745857239e-02,-5.468488484621047974e-02,-4.190432652831077576e-02,-8.989587426185607910e-03,-6.701430305838584900e-03,2.365955151617527008e-02,-2.787934243679046631e-02,-5.027193948626518250e-02,-3.001256659626960754e-02,6.126618944108486176e-03,-4.722638800740242004e-02,-4.210390150547027588e-02,-3.743153065443038940e-02,-5.699516832828521729e-02,-4.072808101773262024e-02,-7.850315421819686890e-03,-5.268014967441558838e-02,-4.133537411689758301e-02,1.053968328051269054e-03,-2.585802227258682251e-02,-3.881020098924636841e-02,5.240357480943202972e-03,4.262878000736236572e-02,-2.846561186015605927e-02,-2.571752481162548065e-02,1.814899593591690063e-02,-3.590677678585052490e-02,4.195406287908554077e-02,-1.372034102678298950e-02,2.637641131877899170e-02,-1.197982858866453171e-02,-2.259543910622596741e-02,-4.255634546279907227e-02,2.824526838958263397e-02,4.193687438964843750e-02,2.636329270899295807e-02,-2.753558941185474396e-02,-2.373433671891689301e-02,1.727165281772613525e-02,-5.415346845984458923e-02,-4.950520396232604980e-02,-1.525385770946741104e-02,-2.551084011793136597e-02,2.696589194238185883e-02,-1.414727792143821716e-02,-3.318083658814430237e-02,-1.057475991547107697e-02,4.813401959836483002e-03,-1.308502629399299622e-02,7.700114510953426361e-03,-2.912809140980243683e-02,-5.885902792215347290e-02,7.116583175957202911e-03,2.707522548735141754e-02,-5.465041846036911011e-02,2.408068254590034485e-02,-4.631355404853820801e-02,-4.789075255393981934e-02,4.906050860881805420e-03,-4.808367416262626648e-02,3.352138400077819824e-02,-4.663462564349174500e-02,-3.899965435266494751e-03,7.813965901732444763e-03,-5.761098000220954418e-04,-2.440124936401844025e-02,1.154539454728364944e-02,-6.406545639038085938e-02,-2.807748876512050629e-02,3.912675008177757263e-02,3.245116770267486572e-02,-9.375361725687980652e-03,-5.542322248220443726e-02,1.954949833452701569e-02,-1.354329567402601242e-02,-5.465799197554588318e-02,9.452175348997116089e-03,-2.579329349100589752e-02,-1.903314143419265747e-02,1.085059065371751785e-02,-4.149747639894485474e-02,1.751728542149066925e-02,-3.781989216804504395e-03,2.585462480783462524e-02
-1.469690203666687012e-01,6.834240257740020752e-02,1.975998841226100922e-02,-1.734755933284759521e-01,-1.341443061828613281e-01,-2.508087754249572754e-01,-2.639160677790641785e-02,7.240711245685815811e-03,-2.085637599229812622e-01,-7.498214393854141235e-02,-1.403496861457824707e-01,-1.699191629886627197e-01,-4.353629946708679199e-01,-1.978439539670944214e-01,2.940175309777259827e-02,-1.916692107915878296e-01,-8.418263494968414307e-02,-1.025906726717948914e-01,-1.667175740003585815e-01,-2.368867583572864532e-02,-1.564460843801498413e-01,-1.862985938787460327e-01,-3.805114030838012695e-01,-5.404351651668548584e-02,2.587970718741416931e-02,-1.888353526592254639e-01,-5.649467557668685913e-02,-1.108480989933013916e-01,-3.469862043857574463e-02,-2.243922650814056396e-01,2.273743450641632080e-01,-2.859924733638763428e-01,-1.111718267202377319e-01,-1.893785148859024048e-01,1.905533075332641602e-01,-1.430165618658065796e-01,-3.065868914127349854e-01,1.897883415222167969e-01,1.532900184392929077e-01,-2.812910974025726318e-01,-1.633379161357879639e-01,-1.839797385036945343e-02,-9.620473533868789673e-02,-1.030679047107696533e-01,1.792481355369091034e-02,-2.565994560718536377e-01,-2.358078584074974060e-02,5.097614228725433350e-02,3.137296810746192932e-02,-1.475630551576614380e-01,-1.670627743005752563e-01,-4.287610352039337158e-01,-2.925793826580047607e-01,-8.855724334716796875e-02,-8.062128722667694092e-02,-2.945683663710951805e-03,-2.471323907375335693e-01,-1.322779357433319092e-01,-1.660380065441131592e-01,5.422132834792137146e-02,-8.385823667049407959e-02,-2.382251471281051636e-01,-1.346725672483444214e-01,1.916098296642303467e-01,-2.236820608377456665e-01,1.250680088996887207e-01,-1.393994837999343872e-01,-5.080874636769294739e-02,-1.145113706588745117e-01,-9.046836942434310913e-02,-1.652747243642807007e-01,-1.899963617324829102e-01,-7.702438533306121826e-02,1.835117340087890625e-01,4.364692419767379761e-02,2.053574621677398682e-01,-1.074602678418159485e-01,1.697926223278045654e-01,-1.134805008769035339e-01,-3.449461609125137329e-02,3.133128583431243896e-02,1.504793912172317505e-01,-1.286004483699798584e-01,-9.294435381889343262e-02,-2.011783123016357422e-01,1.810318231582641602e-01,6.285351514816284180e-02,-1.420515924692153931e-01,-1.124153137207031250e-01,-1.219402104616165161e-01,-1.823019534349441528e-01,-3.611659109592437744e-01,-1.918080002069473267e-01,3.129882737994194031e-02,-3.960054218769073486e-01,-1.489940136671066284e-01,-1.409781724214553833e-01,-1.882472634315490723e-01,-1.128582432866096497e-01,-1.946003735065460205e-01,-1.245547235012054443e-01,2.832953631877899170e-02,-1.865191608667373657e-01,-2.173324581235647202e-03,-1.863836199045181274e-01,-1.611634492874145508e-01,2.299965620040893555e-01,-5.613093823194503784e-02,-3.917868733406066895e-01,-3.977395296096801758e-01,-9.209791570901870728e-02,-1.880002319812774658e-01,1.664006710052490234e-01,-1.605876684188842773e-01,-5.050475597381591797e-01,-1.017455682158470154e-01,-2.895081415772438049e-02,-2.166676521301269531e-01,-1.905441731214523315e-01,-2.821223735809326172e-01,-5.391648411750793457e-01,1.289266347885131836e-02,-2.496576309204101562e-01,-3.661063909530639648e-01,-6.409772485494613647e-02,-1.883159726858139038e-01,-1.680587301962077618e-03,-1.199634894728660583e-01,3.717200458049774170e-02,-1.530857086181640625e-01,-2.788937687873840332e-01,-1.404302567243576050e-01,-8.941633626818656921e-03,-1.179931685328483582e-01,-3.191788196563720703e-01,-2.652557790279388428e-01,-3.552677631378173828e-01,2.196170389652252197e-01,-3.479440882802009583e-02,-2.032367736101150513e-01,-1.289362311363220215e-01,2.705232426524162292e-02,-2.896114252507686615e-02,-4.944408237934112549e-01,-3.354889154434204102e-01,-3.548882603645324707e-01,-3.856148719787597656e-01,-1.083220019936561584e-01,-1.750753819942474365e-01,4.285937175154685974e-02,-3.229713439941406250e-01,8.228760957717895508e-02,-1.635876297950744629e-02,-6.549697369337081909e-02,-1.569468379020690918e-01,-2.541148364543914795e-01,-3.881787359714508057e-01,-1.141129434108734131e-01,-1.600811816751956940e-02,-1.324888169765472412e-01,-2.059093117713928223e-01,-1.658308058977127075e-01,1.368983997963368893e-03,-1.177040189504623413e-01,-1.221944838762283325e-01,1.107485964894294739e-02,-1.624551266431808472e-01,-1.425470113754272461e-01,-9.643197804689407349e-02,-1.870021373033523560e-01,-1.932053118944168091e-01,-1.852076500654220581e-01,-1.706856042146682739e-01,-6.670507043600082397e-02,-1.392719298601150513e-01,-1.685053259134292603e-01,-9.327416867017745972e-02,-2.891295850276947021e-01,-2.174136936664581299e-01,-7.716774940490722656e-02,-2.404191493988037109e-01,-1.760293543338775635e-01,-1.585809290409088135e-01,-2.233363986015319824e-01,-1.451691240072250366e-01,-2.064774632453918457e-01,-2.968164980411529541e-01,3.809804096817970276e-02,-2.604933083057403564e-01,-5.515395998954772949e-01,-9.551130980253219604e-02,-5.496241897344589233e-02,-1.027964130043983459e-01,7.856677472591400146e-02,-1.855004280805587769e-01,-2.069301903247833252e-01,-3.414445817470550537e-01,9.158215671777725220e-02,-7.281368970870971680e-02,-1.226789578795433044e-01,-3.808509409427642822e-01,3.634445311035960913e-04,-3.076553046703338623e-01,-8.506269007921218872e-02,-4.436545819044113159e-02,-1.120653674006462097e-01,-2.423109859228134155e-01,-1.905956864356994629e-01,1.408316195011138916e-02,-8.098101615905761719e-02,-9.846553206443786621e-02,-1.620770841836929321e-01,-3.068033754825592041e-01,-1.582509279251098633e-01,3.865777701139450073e-02,-1.740769296884536743e-01,-8.739969134330749512e-02,-1.148501262068748474e-01,3.777204826474189758e-02,-1.952749341726303101e-01,-8.092758804559707642e-02,-2.067006975412368774e-01,2.425906248390674591e-02,-1.668968647718429565e-01,-2.103926092386245728e-01,-4.083264991641044617e-02,-1.325575113296508789e-01,-2.680766284465789795e-01,-1.443267464637756348e-01,-5.991827324032783508e-02,-1.606482714414596558e-01,-3.187768459320068359e-01,-3.990358114242553711e-01,-8.365578949451446533e-02,-9.391357749700546265e-02,1.341387182474136353e-01,2.055982360616326332e-03,-2.544748187065124512e-01,-3.965268731117248535e-01,-4.049659967422485352e-01,-2.502127289772033691e-01,-3.065733015537261963e-01,-1.819852143526077271e-01,-9.290386736392974854e-02,2.722405195236206055e-01,-2.717883884906768799e-01,5.909044668078422546e-02,-3.903617560863494873e-01,-1.334687918424606323e-01,-2.632769048213958740e-01,2.257544994354248047e-01,-1.193499863147735596e-01,-1.057497337460517883e-01,-1.540046930313110352e-02,-7.287526130676269531e-02,-2.735306322574615479e-01,3.283401727676391602e-01,-2.281910926103591919e-01,-1.823289692401885986e-01,-4.542179405689239502e-01,-2.307901829481124878e-01,-2.274956554174423218e-01,-7.148644328117370605e-02,-2.147591412067413330e-01,-2.127875238656997681e-01,-1.257611066102981567e-01,-1.540421992540359497e-01,-2.299816906452178955e-01,-3.144347071647644043e-01,4.258578643202781677e-02,-3.109035491943359375e-01,-3.440089821815490723e-01,-2.543105483055114746e-01,9.814029932022094727e-02,-1.428693085908889771e-01,1.601375639438629150e-01,-2.261042147874832153e-01,-3.281109631061553955e-01,-1.952690035104751587e-01,-2.975307106971740723e-01,-1.439508199691772461e-01,-1.819015443325042725e-01,-1.612659692764282227e-01,-2.887371368706226349e-02,-2.785160243511199951e-01,2.789178676903247833e-02,-9.867196530103683472e-02,-7.793185114860534668e-02,-2.515901625156402588e-01,-3.823688030242919922e-01,-2.675199210643768311e-01,-3.449903130531311035e-01,1.624957621097564697e-01,-1.475032512098550797e-02,3.270403295755386353e-02,-1.635677926242351532e-02,-2.376860380172729492e-01,1.227509528398513794e-01,-2.075697295367717743e-02,7.126616686582565308e-02,-1.331228613853454590e-01,6.636166572570800781e-02,-1.765528172254562378e-01,-8.399260044097900391e-02,-1.810869872570037842e-01,3.883405029773712158e-02,-2.659973204135894775e-01,2.793780900537967682e-02,-5.705779418349266052e-02,-3.068190217018127441e-01,-2.871396541595458984e-01,1.312024798244237900e-02,-1.466869115829467773e-01,-1.374858319759368896e-01,-8.214784413576126099e-02,-1.106593459844589233e-01,-2.036698460578918457e-01,-4.473461955785751343e-02,2.853603363037109375e-01,-2.970442920923233032e-02,-7.849165797233581543e-02,-2.905378043651580811e-01,-1.197172477841377258e-01,-1.015264391899108887e-01,-1.536218076944351196e-01,-7.921533286571502686e-02,-6.421029567718505859e-02,-6.909538060426712036e-02,-6.166111677885055542e-02,1.131405234336853027e-01,-6.333387643098831177e-02,-2.089750617742538452e-01,-2.207295894622802734e-01,-1.855031102895736694e-01,-2.079582810401916504e-01,1.319431960582733154e-01,-3.059727847576141357e-01,2.225831449031829834e-01,-3.650063276290893555e-01,9.716959297657012939e-02,-3.048210144042968750e-01,-2.186153829097747803e-01,-6.634283810853958130e-02,-1.838167160749435425e-01,-3.677116930484771729e-01,-3.848722279071807861e-01,1.601266711950302124e-01,-4.417575299739837646e-01,1.893011927604675293e-01,-1.049382239580154419e-01,-3.520458191633224487e-02,-3.144235908985137939e-02,-1.948665529489517212e-01,-8.505508303642272949e-02,-9.379249066114425659e-03,-1.840211749076843262e-01,-1.121740937232971191e-01,1.723116636276245117e-01,-1.776773780584335327e-01,-9.709576517343521118e-02,-1.594608128070831299e-01,-1.603315621614456177e-01,1.213498041033744812e-01,-3.665711879730224609e-01,-2.744150161743164062e-01,-1.141359582543373108e-01,1.539123207330703735e-01,-2.344325780868530273e-01,-1.708066835999488831e-02,-8.048596233129501343e-02,-3.498265445232391357e-01,3.998397663235664368e-02,-1.985246688127517700e-01,-2.509072721004486084e-01,-3.779914081096649170e-01,1.836855895817279816e-02,-4.212767258286476135e-02,-1.756463646888732910e-01,-1.061398163437843323e-01,-2.162539213895797729e-01,4.748915508389472961e-02,1.160672605037689209e-01,-3.631063178181648254e-02,-2.546949386596679688e-01,-2.212608158588409424e-01,-1.950661540031433105e-01,-1.797354072332382202e-01,7.299936562776565552e-02,-2.199892550706863403e-01,2.001364156603813171e-02,-2.200801074504852295e-01,-3.822357356548309326e-01,9.664824232459068298e-03,-3.703111708164215088e-01,-1.664938963949680328e-02,-2.178135365247726440e-01,-2.815359532833099365e-01,-5.938272550702095032e-02,-7.552063465118408203e-02,-2.292450219392776489e-01
-1.602952837944030762e+00,-1.748138964176177979e-01,1.447850167751312256e-01,4.881120473146438599e-02,-6.008857861161231995e-03,-1.200107708573341370e-01,-2.795544266700744629e-01,-1.513897538185119629e+00,-6.553547382354736328e-01,-7.649182081222534180e-01,9.413707852363586426e-01,-2.408069133758544922e+00,1.570459455251693726e-01,-1.600524783134460449e+00,-3.373885452747344971e-01,4.090810716152191162e-01,-3.326302766799926758e-02,1.856293827295303345e-01,-4.010231196880340576e-01,-9.286294132471084595e-02,-8.202487230300903320e-01,-1.321512937545776367e+00,3.132711350917816162e-01,-1.153080821037292480e+00,-9.282892346382141113e-01,-1.856585443019866943e-01,-2.134167999029159546e-01,-1.536550283432006836e+00,4.487947523593902588e-01,-1.175066947937011719e+00,-4.737460613250732422e-02,2.543962895870208740e-01,-1.007395625114440918e+00,4.497758746147155762e-01,4.086911678314208984e-01,8.353997468948364258e-01,-6.591804027557373047e-01,-1.076816678047180176e+00,3.229836747050285339e-02,-1.243565201759338379e+00,-2.273776978254318237e-01,-1.716545820236206055e+00,-3.844340145587921143e-01,-1.198412850499153137e-01,-1.031982246786355972e-02,-1.191726922988891602e+00,-6.528123021125793457e-01,-3.088055253028869629e-01,6.336746811866760254e-01,2.211220413446426392e-01,-4.752828478813171387e-01,-1.811662688851356506e-02,3.257554490119218826e-03,-1.377528253942728043e-02,-1.749758571386337280e-01,4.451702535152435303e-02,-7.811424732208251953e-01,1.737848222255706787e-01,-2.462251782417297363e-01,3.498780131340026855e-01,-1.383678317070007324e-01,-6.781182438135147095e-02,-1.579463243484497070e+00,4.358263611793518066e-01,-1.570793390274047852e+00,3.939300179481506348e-01,2.507763355970382690e-02,-4.681397601962089539e-02,4.949343800544738770e-01,-1.565900743007659912e-01,-6.686538457870483398e-01,4.619655907154083252e-01,-7.580295205116271973e-02,-6.587576866149902344e-01,-1.450706243515014648e+00,9.100474715232849121e-01,3.891336619853973389e-01,-9.269245266914367676e-01,-4.180567339062690735e-02,-7.297142744064331055e-01,-1.558714747428894043e+00,2.851393446326255798e-02,-8.926443457603454590e-01,9.131481051445007324e-01,2.853525578975677490e-01,-5.174954980611801147e-02,-2.315182536840438843e-01,-2.371301412582397461e+00,-1.144041895866394043e+00,1.195463389158248901e-01,6.574038863182067871e-01,-9.267740249633789062e-01,1.680223047733306885e-01,-2.516618669033050537e-01,-4.651021957397460938e-02,1.870340108871459961e-01,-1.368445307016372681e-01,-1.417163372039794922e+00,3.990928530693054199e-01,-4.809250235557556152e-01,3.979099988937377930e-01,-1.276446580886840820e+00,-2.590791463851928711e+00,-8.257381319999694824e-01,-6.123465895652770996e-01,2.612855732440948486e-01,-1.310666650533676147e-01,-1.007179498672485352e+00,-1.056206077337265015e-01,3.635383844375610352e-01,5.425786226987838745e-02,-1.006806176155805588e-02,-1.092910528182983398e+00,-1.552607268095016479e-01,3.103926181793212891e-01,-4.604501426219940186e-01,-2.186779975891113281e+00,-1.284140110015869141e+00,-1.382534027099609375e+00,3.286217451095581055e-01,-2.517929114401340485e-02,-9.116919636726379395e-01,-5.290952324867248535e-01,3.285855352878570557e-01,8.242597430944442749e-02,5.238384008407592773e-01,1.399138569831848145e-01,7.478855550289154053e-02,4.563938081264495850e-01,1.447116583585739136e-01,8.011434674263000488e-01,-1.805398911237716675e-01,3.231156170368194580e-01,-6.718181371688842773e-01,2.730224654078483582e-02,5.650584697723388672e-01,-7.508128881454467773e-01,-6.417654156684875488e-01,1.894253641366958618e-01,-1.852333992719650269e-01,-9.533479809761047363e-01,-1.414425298571586609e-02,-6.164059638977050781e-01,5.566096305847167969e-01,4.521217644214630127e-01,-6.251343488693237305e-01,2.216618210077285767e-01,6.009992957115173340e-01,-1.266046762466430664e+00,3.535290658473968506e-01,-1.223479509353637695e+00,-2.281316995620727539e+00,3.837758600711822510e-01,3.967668116092681885e-01,-1.499804556369781494e-01,-7.906582951545715332e-01,-7.722448110580444336e-01,4.056649804115295410e-01,1.843219995498657227e-01,3.311900198459625244e-01,7.713457103818655014e-03,-5.959035754203796387e-01,-1.138605356216430664e+00,-1.373204588890075684e-01,-8.119512200355529785e-01,-1.402314007282257080e-01,-1.207079648971557617e+00,1.906542479991912842e-01,-3.483337402343750000e+00,-5.218614339828491211e-01,-2.340821504592895508e+00,-3.747237920761108398e-01,-7.318389415740966797e-01,3.206990659236907959e-02,7.777482271194458008e-01,3.642196953296661377e-02,-2.198735624551773071e-02,-5.985033512115478516e-01,-5.182911828160285950e-02,-1.112522631883621216e-01,8.818427473306655884e-02,3.048880994319915771e-01,-4.403215646743774414e-01,-4.182187318801879883e-01,-8.422871232032775879e-01,-5.400872230529785156e-01,2.920528352260589600e-01,4.108261168003082275e-01,-1.143209457397460938e+00,1.927003115415573120e-01,-5.139085650444030762e-01,-4.506688416004180908e-01,-3.988350629806518555e-01,2.170020937919616699e-01,3.606117516756057739e-02,4.773015379905700684e-01,-2.613727748394012451e-01,9.868988394737243652e-01,4.714202880859375000e-01,-2.958221174776554108e-02,-1.719890832901000977e+00,-1.192563474178314209e-01,-9.196364134550094604e-02,-1.591136813163757324e+00,7.863067984580993652e-01,-3.409237414598464966e-02,-5.356575846672058105e-01,-3.775658607482910156e-01,-2.194675803184509277e-02,-1.172202706336975098e+00,5.673526525497436523e-01,-6.313552856445312500e-01,-1.925298571586608887e-01,-1.072528004646301270e+00,1.181378722190856934e+00,5.565882921218872070e-01,-3.601932525634765625e-02,-2.617245912551879883e-01,-9.089897871017456055e-01,-1.413810014724731445e+00,-8.396332263946533203e-01,1.796610206365585327e-01,-1.448789387941360474e-01,9.011149406433105469e-01,-6.044796705245971680e-01,9.188474416732788086e-01,-1.050529718399047852e+00,-2.428245544433593750e-01,-2.138039618730545044e-01,1.022336781024932861e-01,-3.131039440631866455e-01,-2.013060450553894043e-01,-2.467996925115585327e-01,9.177621603012084961e-01,-3.124527633190155029e-01,-5.819317698478698730e-01,-6.208831071853637695e-01,3.059471212327480316e-02,-7.948331832885742188e-01,-5.483669638633728027e-01,1.236469745635986328e-01,1.838863939046859741e-01,-1.439859390258789062e+00,-1.256235480308532715e+00,-3.420020937919616699e-01,-2.828857004642486572e-01,1.761667616665363312e-02,5.026451945304870605e-01,-1.880292296409606934e-01,-3.620926141738891602e-01,1.085024237632751465e+00,3.345642983913421631e-01,-7.729799747467041016e-01,-5.644016265869140625e-01,1.904752254486083984e-01,-5.725719928741455078e-01,1.022492796182632446e-01,-1.969057321548461914e-01,-2.726222276687622070e-01,-5.462368130683898926e-01,7.232645153999328613e-02,-4.389464557170867920e-01,-8.314540982246398926e-01,-5.183284282684326172e-01,-9.856113195419311523e-01,1.114721670746803284e-01,-1.099586129188537598e+00,-1.991179287433624268e-01,-4.065449833869934082e-01,-1.550504446029663086e+00,-7.726390957832336426e-01,8.564592003822326660e-01,-5.500333756208419800e-02,-6.214951351284980774e-02,2.375539392232894897e-02,-8.708898425102233887e-01,-1.476209521293640137e+00,1.387491226196289062e-01,-2.256270498037338257e-01,-2.294309288263320923e-01,2.247065752744674683e-01,-2.688840329647064209e-01,7.904825359582901001e-02,-4.081440567970275879e-01,3.196658492088317871e-01,-1.397372603416442871e+00,2.345688790082931519e-01,2.033772319555282593e-01,1.231500059366226196e-01,-5.583168864250183105e-01,-4.981506466865539551e-01,-5.391592383384704590e-01,9.030604362487792969e-01,5.361274480819702148e-01,-1.250008307397365570e-02,7.545291781425476074e-01,5.801546573638916016e-01,-1.621370673179626465e+00,-6.031022667884826660e-01,1.248769760131835938e-01,-3.851750791072845459e-01,9.456356987357139587e-03,5.145169422030448914e-02,-3.190623521804809570e-01,-2.452519237995147705e-01,-8.892859518527984619e-02,-2.408152222633361816e-01,-3.158483803272247314e-01,7.590285539627075195e-01,4.132715165615081787e-01,-4.729312956333160400e-01,8.757413625717163086e-01,-7.036864012479782104e-02,2.469211369752883911e-01,-7.099338620901107788e-02,-3.233386576175689697e-01,-3.325798511505126953e-01,-6.608858704566955566e-01,-6.599913835525512695e-01,-4.329815208911895752e-01,-3.040744960308074951e-01,-8.548813462257385254e-01,-2.520157992839813232e-01,-3.524217009544372559e-01,-1.026260852813720703e+00,-1.267403364181518555e+00,-1.850238293409347534e-01,-5.882751345634460449e-01,-3.663538098335266113e-01,-7.181659936904907227e-01,-1.745329737663269043e+00,-1.183700799942016602e+00,-9.267371892929077148e-01,-5.237665176391601562e-01,5.478772148489952087e-02,4.422886371612548828e-01,-8.707413673400878906e-01,-4.737055599689483643e-01,-7.788961380720138550e-02,-1.211847662925720215e+00,-8.306134939193725586e-01,3.113193251192569733e-02,1.636109054088592529e-01,-9.832157939672470093e-02,-1.269864916801452637e+00,2.218962758779525757e-01,1.095325112342834473e+00,-5.981826186180114746e-01,-2.308582663536071777e-01,-6.605517864227294922e-01,-1.347046256065368652e+00,-1.166279613971710205e-01,-2.807915210723876953e+00,1.385221034288406372e-01,-8.472772836685180664e-01,-6.998676657676696777e-01,-8.097961544990539551e-01,-5.172942876815795898e-01,-6.094656884670257568e-02,-3.213115036487579346e-02,-7.552985101938247681e-02,-6.959404349327087402e-01,7.882521152496337891e-01,-1.264123022556304932e-01,5.667003393173217773e-01,1.137759909033775330e-01,5.716073140501976013e-02,-7.034730911254882812e-01,-2.575462684035301208e-02,-2.806577980518341064e-01,-4.771208167076110840e-01,9.890245795249938965e-01,-4.900249242782592773e-01,-2.250320911407470703e+00,2.612514421343803406e-03,-2.113092422485351562e+00,-8.409172296524047852e-01,-3.377935588359832764e-01,-1.874393224716186523e+00,3.088677674531936646e-02,3.699448406696319580e-01,-9.241203069686889648e-01,-1.523882269859313965e+00,-2.407913208007812500e-01,-7.693531513214111328e-01,-7.068981528282165527e-01,-5.008086562156677246e-01,-7.366954684257507324e-01,6.354876607656478882e-02,9.046082943677902222e-02,2.671825289726257324e-01,4.315486550331115723e-01,-1.326839774847030640e-01,1.657116115093231201e-01,-1.007237657904624939e-01,4.728659093379974365e-01,-1.121211767196655273e+00,4.439584538340568542e-02,-1.486242651939392090e+00,8.335409164428710938e-01
-7.037494331598281860e-02,2.430735714733600616e-02,4.560135677456855774e-02,3.183005377650260925e-02,3.235971182584762573e-02,-1.100131403654813766e-02,-3.499491512775421143e-02,-2.189769037067890167e-02,2.171298023313283920e-03,-1.749939844012260437e-02,-3.408887237310409546e-02,-8.185325190424919128e-03,-3.103183396160602570e-02,-4.388083145022392273e-02,-5.022496730089187622e-02,1.682167523540556431e-03,4.768415912985801697e-02,3.623585775494575500e-02,3.515553101897239685e-02,-9.093758650124073029e-03,1.048996578902006149e-02,4.700830206274986267e-02,1.237947400659322739e-02,1.935337670147418976e-03,-2.544793486595153809e-02,-4.710522294044494629e-02,5.716479849070310593e-03,-4.392079636454582214e-02,-4.731111600995063782e-02,-5.597474053502082825e-02,-4.467689897865056992e-03,-4.944469779729843140e-02,-2.308677881956100464e-02,1.921531371772289276e-02,2.326110005378723145e-02,-1.511193253099918365e-02,-5.294668674468994141e-02,-3.155530244112014771e-02,-3.269598260521888733e-02,-6.513982266187667847e-02,4.017838463187217712e-02,-7.995812338776886463e-04,1.431385986506938934e-02,-2.095368504524230957e-02,-4.851050674915313721e-02,-4.500330891460180283e-03,2.893695048987865448e-02,-1.202692557126283646e-02,-4.849124327301979065e-02,-2.111447043716907501e-02,-5.119393393397331238e-02,-4.004183039069175720e-02,-6.878803018480539322e-03,-4.034520313143730164e-02,-6.690379977226257324e-02,-2.005502022802829742e-02,-5.289225652813911438e-02,-4.512619599699974060e-02,2.928254567086696625e-02,1.187938917428255081e-02,-7.604921236634254456e-03,-2.039102464914321899e-02,-5.969769880175590515e-02,-1.488729263655841351e-03,-1.366066746413707733e-02,-3.922771662473678589e-02,3.016432188451290131e-02,4.064483195543289185e-02,-3.578064963221549988e-02,3.011271357536315918e-03,2.896893769502639771e-02,-2.844471298158168793e-02,-5.015682801604270935e-02,3.324928134679794312e-02,-3.781933337450027466e-02,2.796713076531887054e-02,-3.939564153552055359e-02,-7.096347864717245102e-03,-1.333981100469827652e-02,-1.243364531546831131e-02,4.555728286504745483e-03,-1.455399673432111740e-02,3.919666633009910583e-02,-6.427037995308637619e-03,-3.692076355218887329e-02,-3.666643053293228149e-02,1.050717849284410477e-02,-5.240203812718391418e-02,1.942875981330871582e-02,-7.653807848691940308e-02,3.593049198389053345e-02,-3.485788404941558838e-02,-6.750060617923736572e-02,3.784340573474764824e-03,2.172804251313209534e-02,-1.831453852355480194e-02,6.957006640732288361e-03,-8.391150832176208496e-02,-1.783855818212032318e-02,9.193218313157558441e-03,-9.702471084892749786e-03,4.476200789213180542e-02,-2.577455155551433563e-02,-3.613254800438880920e-02,-3.352057188749313354e-02,2.738370327278971672e-03,2.215756103396415710e-02,-1.206118054687976837e-02,1.536571508040651679e-04,-9.626826643943786621e-02,3.264826908707618713e-02,-4.121732711791992188e-02,-3.931085765361785889e-02,-4.613321274518966675e-02,2.330201119184494019e-02,-5.441164970397949219e-02,8.977040648460388184e-03,-9.561593760736286640e-04,-2.063588425517082214e-02,-2.033723704516887665e-02,-1.073572635650634766e-01,4.652698338031768799e-02,1.915399171411991119e-02,-4.725068062543869019e-02,-4.279429465532302856e-02,3.214481845498085022e-02,1.971346326172351837e-02,-3.180856630206108093e-02,9.288345463573932648e-04,-2.697604335844516754e-02,-3.682563547044992447e-03,-6.965519487857818604e-02,1.986427232623100281e-02,1.478323992341756821e-02,1.219307087012566626e-04,4.000634420663118362e-03,-1.117660198360681534e-02,1.305005233734846115e-02,6.537031382322311401e-03,6.510186940431594849e-02,5.857429653406143188e-02,-2.368175052106380463e-02,-9.135138243436813354e-03,8.793499320745468140e-03,-5.305411294102668762e-02,1.791605539619922638e-02,-4.500820487737655640e-02,3.904960583895444870e-03,-2.161639928817749023e-02,-2.800571266561746597e-03,-2.461862564086914062e-02,5.573118478059768677e-02,-5.480798706412315369e-02,-5.638544913381338120e-03,-4.810689389705657959e-02,4.271141439676284790e-02,-1.179504394531250000e-01,-2.945605374407023191e-04,-5.164060741662979126e-02,2.700029127299785614e-02,2.154980599880218506e-02,6.042049266397953033e-03,-2.470556460320949554e-02,1.025158353149890900e-02,-2.654595300555229187e-02,4.676511138677597046e-02,-5.604321137070655823e-02,-7.637853920459747314e-02,-1.896918565034866333e-02,-8.470558375120162964e-02,-9.718252345919609070e-03,9.683061391115188599e-03,1.264602690935134888e-02,-5.558792501688003540e-02,-6.175297498703002930e-02,-4.876389726996421814e-02,2.309734933078289032e-03,-2.519378811120986938e-02,-4.375844076275825500e-02,-4.827738553285598755e-02,2.146461606025695801e-02,-1.092197000980377197e-02,-7.396607100963592529e-02,-3.512307256460189819e-02,-2.556126564741134644e-02,-2.699035592377185822e-02,3.048264421522617340e-02,3.564314916729927063e-02,-4.617372527718544006e-02,-4.560125991702079773e-02,-4.736235737800598145e-02,-1.385510712862014771e-02,-8.500433713197708130e-02,-9.504625573754310608e-03,3.462843224406242371e-02,-2.301465347409248352e-02,-4.699578508734703064e-02,1.891822740435600281e-02,8.887944743037223816e-03,-2.124607004225254059e-02,-2.321688458323478699e-02,-4.994716867804527283e-02,-2.243408747017383575e-02,-3.352613374590873718e-02,1.829190552234649658e-02,-1.520867180079221725e-02,-2.691289782524108887e-02,-5.600896850228309631e-02,-4.445571079850196838e-02,2.774909324944019318e-02,-2.231063134968280792e-02,-5.002725496888160706e-02,1.565632782876491547e-02,-1.683667860925197601e-02,-2.108820527791976929e-02,-9.928254876285791397e-04,-9.326020954176783562e-04,-4.149835184216499329e-02,3.616661205887794495e-02,-1.011672243475914001e-01,-1.581176370382308960e-02,-1.786268502473831177e-02,-1.985350996255874634e-02,-2.791192196309566498e-02,-2.029598131775856018e-02,-2.480958402156829834e-02,-4.946124181151390076e-02,-9.588023275136947632e-02,-1.923184283077716827e-02,-3.208921849727630615e-02,2.638723887503147125e-02,2.028400823473930359e-02,-8.397973328828811646e-02,1.283779926598072052e-02,1.397801283746957779e-02,7.713931147009134293e-03,1.702261529862880707e-02,-1.169972773641347885e-02,-3.794077038764953613e-02,-6.882607191801071167e-02,1.626159064471721649e-02,-3.124826960265636444e-02,3.053121734410524368e-03,-1.703385412693023682e-01,1.900910772383213043e-02,-1.304566264152526855e-01,-3.246413916349411011e-02,2.845529234036803246e-03,-2.110433205962181091e-02,1.505770906805992126e-02,-5.279910564422607422e-02,2.314208634197711945e-02,-9.203708916902542114e-02,-3.775679040700197220e-03,-3.366247564554214478e-02,-1.825549639761447906e-02,-1.492581423372030258e-02,-1.017905655317008495e-03,-4.342339187860488892e-02,-1.768215000629425049e-02,-4.792294278740882874e-02,-5.926127731800079346e-02,-5.292691290378570557e-02,-2.834636345505714417e-02,2.700860984623432159e-02,-7.964342832565307617e-03,-1.770129054784774780e-01,-4.459735378623008728e-02,-1.057868264615535736e-02,-7.440502941608428955e-02,-6.674644351005554199e-02,-5.257227271795272827e-02,-5.176876857876777649e-02,4.290637373924255371e-02,1.630032435059547424e-02,-7.103011012077331543e-03,-3.374792635440826416e-02,-5.352475494146347046e-02,1.112689077854156494e-02,-5.840170755982398987e-02,-1.465219818055629730e-02,-4.387008398771286011e-02,4.596903175115585327e-02,5.267383158206939697e-02,-5.141321197152137756e-02,4.828888922929763794e-02,-7.410444319248199463e-03,-6.278220098465681076e-03,-4.438085108995437622e-02,-5.941278114914894104e-02,-7.234190404415130615e-02,1.574116386473178864e-02,1.692998223006725311e-02,-2.561020664870738983e-02,-2.312447875738143921e-02,-5.343828350305557251e-02,3.633750230073928833e-02,1.782946847379207611e-02,-5.377568304538726807e-03,-8.502932265400886536e-03,-2.226242097094655037e-03,-6.346882134675979614e-02,3.829280659556388855e-02,-5.120142549276351929e-02,-3.375866636633872986e-02,-4.637470468878746033e-02,-1.424517631530761719e-01,-5.920859426259994507e-02,2.587834559381008148e-02,-8.581420034170150757e-02,2.281208336353302002e-02,-9.279160946607589722e-02,1.317545771598815918e-02,-2.381895296275615692e-02,-2.277717180550098419e-02,-4.032152518630027771e-02,-2.716158889234066010e-02,-1.853808760643005371e-02,-2.584604360163211823e-02,1.644995622336864471e-02,2.904124930500984192e-02,-3.716259077191352844e-02,2.303192578256130219e-02,-3.781671077013015747e-02,3.428634488955140114e-03,-5.120210349559783936e-02,3.266119398176670074e-03,-7.210572063922882080e-02,-2.570705255493521690e-03,-4.344199225306510925e-02,-4.755392298102378845e-02,-1.009374484419822693e-02,1.608450897037982941e-02,-6.214644759893417358e-03,-4.749329760670661926e-02,-1.611820235848426819e-02,1.918205234687775373e-04,3.920341283082962036e-02,-2.801820263266563416e-02,2.750175446271896362e-02,-4.874287545680999756e-02,-5.513164401054382324e-02,1.001094840466976166e-02,3.301831707358360291e-02,6.701918318867683411e-03,-8.730336278676986694e-02,1.878102892078459263e-03,-2.571150846779346466e-02,3.196504712104797363e-02,-1.226085983216762543e-02,-1.092781051993370056e-01,1.099778246134519577e-02,-6.312125176191329956e-02,-7.097873091697692871e-02,1.130158547312021255e-02,-3.920416161417961121e-02,-1.304309442639350891e-02,-4.395774751901626587e-02,3.687086980789899826e-03,-2.789973095059394836e-02,-2.048991806805133820e-02,-4.783402755856513977e-02,-3.465890884399414062e-02,-5.311581119894981384e-02,-1.317786239087581635e-02,-1.937611587345600128e-02,2.361974865198135376e-02,1.419982872903347015e-02,-1.340384222567081451e-02,2.705686353147029877e-02,1.263568550348281860e-02,-7.231377065181732178e-02,4.269571602344512939e-02,-2.453955076634883881e-02,-7.937051355838775635e-02,6.605322938412427902e-03,-4.654506593942642212e-02,-5.028387159109115601e-02,-4.631922580301761627e-03,-1.850110478699207306e-02,-5.254638940095901489e-02,-1.468667108565568924e-02,-8.152632415294647217e-02,-1.196120493113994598e-02,-1.626519858837127686e-02,2.815715968608856201e-02,-4.731653258204460144e-02,1.206110324710607529e-02,-4.360206425189971924e-02,4.718611761927604675e-02,-3.704638406634330750e-02,-6.858323514461517334e-02,2.513993531465530396e-02,-2.489640936255455017e-02,-3.836316242814064026e-02,-1.422922778874635696e-02,-2.127025276422500610e-02,-6.090560927987098694e-02,2.742427214980125427e-02,-4.683027043938636780e-02
2.966238372027873993e-02,4.404104128479957581e-02,-2.069611847400665283e-02,-3.098418563604354858e-02,3.493915311992168427e-03,-4.988762084394693375e-03,-5.491566658020019531e-02,-4.206109791994094849e-02,2.250449731945991516e-03,-2.287261188030242920e-02,1.670823805034160614e-02,3.541443124413490295e-02,3.825665637850761414e-02,-4.048330709338188171e-02,-3.822458162903785706e-02,-3.310197591781616211e-02,-2.372736111283302307e-02,-3.457811474800109863e-02,-4.908600077033042908e-02,3.878587856888771057e-02,7.725115399807691574e-03,3.839009255170822144e-02,-4.473618045449256897e-02,8.989290334284305573e-03,-3.555252030491828918e-02,-7.386059034615755081e-03,1.847996190190315247e-02,5.006385035812854767e-03,-4.335287958383560181e-02,4.761805012822151184e-02,4.104682058095932007e-02,-4.770147148519754410e-03,3.919554129242897034e-02,-1.468826457858085632e-02,-1.676490530371665955e-02,-2.267824858427047729e-02,3.699069470167160034e-02,-4.703777655959129333e-02,5.153268110007047653e-03,-4.966617003083229065e-02,2.276521921157836914e-02,-4.159244149923324585e-02,-1.691714487969875336e-02,-2.942193113267421722e-02,-2.399132214486598969e-02,-3.311422839760780334e-02,-3.423571761231869459e-04,-4.394602403044700623e-02,-2.197705395519733429e-02,-2.698113396763801575e-02,-5.179089307785034180e-02,3.029818087816238403e-02,1.857286691665649414e-02,3.953767195343971252e-02,-2.848882460966706276e-03,-4.486646130681037903e-02,-2.615058235824108124e-02,9.472956880927085876e-03,2.683427650481462479e-03,4.329567402601242065e-02,-8.421660400927066803e-03,2.643730491399765015e-02,-3.640922904014587402e-02,-2.461094409227371216e-02,-4.956838488578796387e-02,-1.751429587602615356e-02,4.475034773349761963e-02,3.578634187579154968e-02,-2.832142077386379242e-02,2.409256249666213989e-02,2.532101981341838837e-02,2.967160753905773163e-02,9.610110893845558167e-03,4.809096455574035645e-02,-1.221626624464988708e-02,-4.011140391230583191e-02,-4.634250700473785400e-02,4.276568442583084106e-02,2.256154082715511322e-03,2.267710678279399872e-02,-4.740544036030769348e-02,-3.457404300570487976e-02,5.120946094393730164e-03,-3.265319019556045532e-02,-4.401149228215217590e-02,-3.730572527274489403e-03,3.024492971599102020e-02,-3.633457049727439880e-02,-2.872660523280501366e-03,-4.331743810325860977e-03,2.268718555569648743e-02,-2.523614792153239250e-03,-1.739633269608020782e-02,-2.520625665783882141e-02,1.379598211497068405e-02,-1.252851262688636780e-02,-1.388391852378845215e-02,1.096568442881107330e-02,6.201806012541055679e-03,2.978493226692080498e-03,-1.619829609990119934e-02,3.393095731735229492e-02,-5.378066003322601318e-02,4.201146215200424194e-02,-4.582290351390838623e-02,7.400828180834650993e-04,2.177531272172927856e-02,6.694877985864877701e-03,-1.563854748383164406e-03,4.289291054010391235e-02,-4.176587983965873718e-02,-3.831930831074714661e-02,2.891482552513480186e-03,-3.837307170033454895e-02,-1.205825340002775192e-02,-7.902031764388084412e-03,5.515906028449535370e-03,-2.568020299077033997e-02,1.572812162339687347e-02,1.819836162030696869e-02,1.238060503965243697e-04,-1.915043778717517853e-02,-4.190229251980781555e-02,-2.867242693901062012e-02,-2.752102166414260864e-02,-2.006795816123485565e-02,2.086608484387397766e-02,-3.762367367744445801e-02,-4.341140389442443848e-02,-2.093810215592384338e-02,1.574069820344448090e-02,3.887848928570747375e-02,4.430393222719430923e-03,-3.198833903297781944e-03,-3.364608436822891235e-02,6.341097410768270493e-03,2.832134440541267395e-02,-1.115887425839900970e-03,-2.921448834240436554e-02,-3.511399403214454651e-02,3.179980814456939697e-02,-2.402558363974094391e-02,-1.979260938242077827e-03,3.165373578667640686e-02,2.002879977226257324e-02,-8.163259364664554596e-03,-1.383368740789592266e-03,-4.393327236175537109e-02,4.072187934070825577e-03,1.250887010246515274e-02,-2.986491098999977112e-02,-3.569299727678298950e-02,1.335542649030685425e-02,2.642136625945568085e-02,-3.098505921661853790e-02,-2.790683507919311523e-02,-2.710383944213390350e-02,-2.686953870579600334e-03,4.140828549861907959e-02,-5.064311996102333069e-02,8.620080538094043732e-03,-1.478210370987653732e-02,-1.839616894721984863e-02,-5.020045489072799683e-02,-2.566950209438800812e-02,-4.655925557017326355e-02,8.071616291999816895e-03,-2.223800495266914368e-02,-4.590645432472229004e-02,-2.414740063250064850e-02,2.681867219507694244e-02,-4.327320307493209839e-02,-3.104037232697010040e-02,-1.737781055271625519e-02,2.631055191159248352e-02,8.919446729123592377e-03,-3.420451655983924866e-02,8.955040946602821350e-03,2.260699309408664703e-02,-4.437420144677162170e-02,-1.839459314942359924e-02,-1.982993632555007935e-02,-2.986590191721916199e-02,3.909230232238769531e-03,-3.011551219969987869e-03,2.838287688791751862e-02,2.212572097778320312e-02,-3.429130092263221741e-02,-3.665712475776672363e-02,2.260060422122478485e-02,-2.045562863349914551e-02,3.392780432477593422e-03,-9.023648686707019806e-03,8.498704060912132263e-03,-2.490207366645336151e-02,-2.187628671526908875e-02,-3.274690732359886169e-02,-2.153757028281688690e-02,2.881658077239990234e-02,3.842943161725997925e-02,-4.336218908429145813e-02,-2.908215299248695374e-02,1.729759015142917633e-02,3.049993328750133514e-02,2.639579027891159058e-02,-4.468745738267898560e-02,3.313504159450531006e-02,3.432814404368400574e-02,-2.622747793793678284e-02,-4.750379547476768494e-02,-2.636441774666309357e-02,-3.811064362525939941e-02,-4.468999058008193970e-02,3.539873287081718445e-02,-1.256372500211000443e-02,-3.285804390907287598e-02,2.999368868768215179e-02,-2.304528094828128815e-02,-1.130583137273788452e-02,-1.588525623083114624e-02,3.537038713693618774e-02,-4.947245493531227112e-02,-3.953060135245323181e-02,-4.430941492319107056e-02,3.883817791938781738e-02,4.158468171954154968e-02,-3.675062954425811768e-02,-3.473963588476181030e-02,2.354816906154155731e-02,-3.807401657104492188e-02,4.177714884281158447e-02,-2.516536973416805267e-02,-2.083051763474941254e-02,3.104154719039797783e-03,4.037234932184219360e-02,-4.026934131979942322e-02,4.184498637914657593e-02,4.482610151171684265e-02,-4.472015425562858582e-02,1.112805120646953583e-02,4.381291195750236511e-02,3.493332117795944214e-02,-2.929276321083307266e-03,2.379759028553962708e-02,7.128088618628680706e-04,-4.281539097428321838e-02,3.795330598950386047e-02,-4.924825206398963928e-02,2.543521486222743988e-02,3.990129753947257996e-02,-3.819268941879272461e-02,3.131974115967750549e-02,-1.933821244165301323e-03,3.191641718149185181e-02,-1.132774353027343750e-02,-2.479035034775733948e-02,3.964677825570106506e-02,2.701306156814098358e-02,-3.648279234766960144e-02,-4.396066069602966309e-02,4.408149048686027527e-02,-5.408193916082382202e-02,1.989157684147357941e-02,-2.455114759504795074e-02,8.773292414844036102e-03,-6.730825640261173248e-03,-4.197910428047180176e-02,-2.625210769474506378e-02,-1.048170495778322220e-02,3.226490691304206848e-02,1.075165811926126480e-02,-8.501091040670871735e-03,-3.384713456034660339e-02,-1.150223426520824432e-02,4.065154492855072021e-02,1.225133147090673447e-02,-3.377489000558853149e-02,1.629028655588626862e-02,8.799489587545394897e-03,-9.653844870626926422e-03,-4.943303763866424561e-02,-2.854784950613975525e-02,2.423601038753986359e-02,4.252108559012413025e-02,6.163653917610645294e-03,-4.867094103246927261e-03,3.404865041375160217e-02,3.783003240823745728e-02,-1.272039394825696945e-02,-7.321834098547697067e-03,-4.221592471003532410e-02,-3.333917260169982910e-02,3.319115377962589264e-03,4.565916955471038818e-02,-4.085797816514968872e-03,-2.441755309700965881e-02,4.554413724690675735e-03,-4.519051313400268555e-02,1.445704139769077301e-02,-2.827337011694908142e-02,-3.983777388930320740e-02,-1.477556489408016205e-02,-2.251794375479221344e-02,-3.454843908548355103e-02,-5.140752717852592468e-02,-4.892171174287796021e-02,-6.132146343588829041e-03,3.597280010581016541e-02,2.906386181712150574e-02,2.117252163589000702e-02,-9.461141191422939301e-03,-2.420197054743766785e-02,-8.836065419018268585e-03,-1.727397367358207703e-02,-3.184317052364349365e-02,-4.414334893226623535e-02,-2.404822222888469696e-02,1.349795516580343246e-02,3.726305812597274780e-02,-3.210709616541862488e-02,-3.527415171265602112e-02,2.353223972022533417e-02,1.765381172299385071e-02,6.973910494707524776e-04,-3.439009934663772583e-02,-5.013949424028396606e-02,2.154055237770080566e-02,2.236284129321575165e-02,-3.624022752046585083e-02,-3.062344901263713837e-02,2.022155374288558960e-02,3.836669772863388062e-02,3.742774575948715210e-02,9.734528139233589172e-03,-4.178421944379806519e-02,1.839104294776916504e-02,-2.923812903463840485e-02,1.368578709661960602e-02,-3.591663017868995667e-02,9.769725613296031952e-03,-4.968739673495292664e-02,-3.142543509602546692e-02,2.417591400444507599e-03,-1.161290984600782394e-02,-4.902351647615432739e-02,3.377645090222358704e-02,2.096681296825408936e-02,3.798965737223625183e-02,3.187005058862268925e-04,-2.125486172735691071e-02,4.717351868748664856e-02,-3.270943090319633484e-02,-2.688334137201309204e-02,3.050470724701881409e-03,-2.242207154631614685e-02,-3.170827031135559082e-02,-4.857089370489120483e-02,3.436645865440368652e-02,-2.683925675228238106e-03,-5.435711704194545746e-03,-2.464603260159492493e-02,6.745451129972934723e-03,-3.247378021478652954e-02,-9.707061573863029480e-03,-2.055396139621734619e-02,-4.983659461140632629e-02,-9.062686003744602203e-03,-3.506238758563995361e-02,-3.907677158713340759e-02,-5.299365520477294922e-02,1.934104412794113159e-02,1.678770966827869415e-02,3.128947690129280090e-02,-3.377474844455718994e-02,-2.721717022359371185e-02,-6.978724617511034012e-03,-2.160705253481864929e-02,-5.082841590046882629e-02,-2.010555937886238098e-02,-1.301121246069669724e-02,-1.693776063621044159e-02,-3.282979875802993774e-02,-2.376424707472324371e-02,1.932439953088760376e-02,2.817159891128540039e-02,-4.484263062477111816e-02,3.422699868679046631e-02,2.761141024529933929e-02,3.064152225852012634e-02,4.596903547644615173e-02,-4.657467827200889587e-02,-2.947322279214859009e-02,-2.325022034347057343e-02,1.800246350467205048e-02,3.570428118109703064e-02,-4.022120311856269836e-02,-3.640530258417129517e-02,-4.604753479361534119e-02,-1.063510403037071228e-02,1.462341286242008209e-03
-3.653967380523681641e-02,-5.753815546631813049e-02,1.167547889053821564e-03,2.514896914362907410e-02,-3.827592730522155762e-02,-4.959822073578834534e-02,-2.529759332537651062e-02,-4.230070917401462793e-04,3.198263049125671387e-02,-5.407780781388282776e-02,2.642783150076866150e-02,6.672552321106195450e-03,-1.523719355463981628e-02,2.679367922246456146e-02,-5.127990990877151489e-02,1.316067669540643692e-02,-1.396180875599384308e-02,1.487725321203470230e-02,1.130418945103883743e-02,1.498960424214601517e-02,-4.053446650505065918e-02,-3.598847612738609314e-02,-2.889367751777172089e-02,2.677922323346138000e-02,1.310727931559085846e-02,1.900038123130798340e-02,-4.439594969153404236e-02,-4.266805574297904968e-02,1.330017112195491791e-02,-7.834434654796496034e-05,3.203954175114631653e-02,-3.201313689351081848e-02,-8.803228288888931274e-02,-5.358513072133064270e-02,-1.791013032197952271e-02,-5.858233943581581116e-02,-1.049859635531902313e-02,-2.640409022569656372e-02,-4.742348194122314453e-02,-3.610786050558090210e-02,2.873733267188072205e-02,2.000221429625526071e-04,3.413093462586402893e-02,-4.382179118692874908e-03,-1.262729242444038391e-02,-5.226254090666770935e-02,-2.482677809894084930e-02,1.376174855977296829e-02,3.002833761274814606e-02,1.158931525424122810e-03,-2.822539396584033966e-02,-2.659462206065654755e-02,2.893573977053165436e-02,-3.672834485769271851e-02,-4.780427739024162292e-02,3.269301727414131165e-02,1.895907334983348846e-02,-4.551751539111137390e-03,1.146241929382085800e-02,-1.591180451214313507e-02,-7.176775485277175903e-02,-2.920056867878884077e-04,2.017375268042087555e-02,-2.314580604434013367e-02,-8.321921527385711670e-02,-2.944261953234672546e-02,-4.102926701307296753e-02,-1.762146130204200745e-02,-5.653588846325874329e-02,2.484303899109363556e-02,2.667465247213840485e-02,-2.014060318470001221e-02,-2.046628855168819427e-02,-6.367173790931701660e-02,-2.542181639000773430e-03,-1.420797966420650482e-02,-4.084489494562149048e-02,-6.335884332656860352e-02,-2.302967943251132965e-03,-1.309882011264562607e-02,1.274346467107534409e-02,-2.457899786531925201e-02,2.505570091307163239e-02,6.364449393004179001e-03,-6.528586964122951031e-04,3.451494500041007996e-02,2.982139401137828827e-02,2.917154505848884583e-02,2.551688440144062042e-02,-3.443356975913047791e-02,8.062571869231760502e-04,-3.113902173936367035e-02,5.470587639138102531e-04,2.456656889989972115e-03,-5.406865850090980530e-02,-9.822110645473003387e-03,-3.432593867182731628e-02,-1.087427511811256409e-02,-3.052231855690479279e-02,-2.229484729468822479e-02,3.095343708992004395e-02,3.049604967236518860e-02,-1.727174618281424046e-03,-8.668174035847187042e-03,-5.546037480235099792e-02,-3.072299249470233917e-02,-5.260725039988756180e-03,-4.764482751488685608e-02,-5.487564578652381897e-02,-5.403956770896911621e-02,-6.198697909712791443e-02,-4.335071891546249390e-02,3.075334709137678146e-03,-1.796222478151321411e-02,-9.907837025821208954e-03,-4.999700933694839478e-03,-3.359774127602577209e-02,-5.478093028068542480e-02,-4.558641090989112854e-02,-2.895378274843096733e-03,4.126078262925148010e-02,1.554008293896913528e-02,-5.773213133215904236e-02,2.002470195293426514e-02,5.979632027447223663e-03,-1.739730127155780792e-02,-2.779832482337951660e-02,-3.721429035067558289e-02,-7.364770770072937012e-02,-1.701229666650760919e-05,-4.280880838632583618e-02,-6.218763068318367004e-03,-1.289974804967641830e-02,-3.133766585960984230e-03,-6.712191551923751831e-02,-6.147159263491630554e-03,-4.548535123467445374e-02,2.511491626501083374e-02,-4.704672843217849731e-02,-7.141860201954841614e-03,-4.382848367094993591e-02,1.593286916613578796e-02,-2.966865722555667162e-04,-9.055341593921184540e-03,-3.183163702487945557e-02,-9.784379974007606506e-03,-2.084518596529960632e-02,-6.214779987931251526e-02,1.124084647744894028e-02,3.217884898185729980e-02,2.228047139942646027e-02,-5.381146073341369629e-02,2.260250784456729889e-02,1.140845566987991333e-02,2.160972356796264648e-02,-1.378958392888307571e-02,-3.084969893097877502e-02,1.835323497653007507e-02,2.928069606423377991e-02,-7.125639356672763824e-03,-4.791746288537979126e-02,2.765590697526931763e-02,-2.989220665767788887e-03,-5.511347204446792603e-02,-4.348525777459144592e-02,-4.428360983729362488e-02,-1.475015282630920410e-02,2.354107238352298737e-02,-5.261085554957389832e-02,-7.994972169399261475e-03,2.888802904635667801e-03,-5.167703330516815186e-02,1.924294047057628632e-02,-3.724349662661552429e-02,-1.539279613643884659e-02,-1.688798144459724426e-02,-4.938095435500144958e-02,3.768003359436988831e-02,-2.774687483906745911e-02,-6.772669404745101929e-02,8.006601594388484955e-03,2.911092899739742279e-02,3.794977813959121704e-02,2.032304927706718445e-02,3.448760369792580605e-03,-4.963648319244384766e-02,-1.624763570725917816e-02,-2.279577031731605530e-02,-4.946286231279373169e-02,-8.628171868622303009e-03,-4.923892766237258911e-02,-3.208958357572555542e-02,-2.899681776762008667e-02,-3.484771400690078735e-02,1.722935587167739868e-02,-4.796194657683372498e-02,-5.030709132552146912e-02,4.182554315775632858e-03,-8.668059483170509338e-03,2.447333745658397675e-02,2.041500434279441833e-02,3.458876162767410278e-02,-5.552281066775321960e-02,3.038191609084606171e-02,1.634139753878116608e-02,3.329230844974517822e-02,3.464693203568458557e-02,-5.431800708174705505e-02,-4.919001087546348572e-02,-2.072323113679885864e-02,1.244834717363119125e-02,-5.076573416590690613e-02,4.747894406318664551e-02,-4.545887187123298645e-02,-1.607301086187362671e-02,-5.620073154568672180e-02,-4.888906260021030903e-04,5.706668645143508911e-02,-3.133289515972137451e-02,6.090615061111748219e-04,-2.851553261280059814e-02,3.414211794734001160e-02,-6.683078408241271973e-02,3.280906379222869873e-02,-2.102636545896530151e-02,-7.584451138973236084e-02,-1.997770369052886963e-02,-4.555932059884071350e-02,3.034214675426483154e-02,1.392051391303539276e-02,2.641660906374454498e-02,2.344403415918350220e-02,2.016784064471721649e-02,-3.004161641001701355e-02,-1.538542192429304123e-02,-9.470227174460887909e-03,3.762324526906013489e-02,-5.569886416196823120e-02,-2.065442875027656555e-02,-7.718133274465799332e-03,-3.324898332357406616e-02,2.593271806836128235e-02,-2.601155079901218414e-02,-3.483086824417114258e-02,-5.168384686112403870e-02,-6.224644556641578674e-02,3.300151228904724121e-02,-3.716086596250534058e-02,-2.339977212250232697e-02,-2.318683825433254242e-02,2.787802182137966156e-02,-3.434499725699424744e-02,-5.436028912663459778e-02,-2.682842500507831573e-02,-2.836234681308269501e-02,-2.892188169062137604e-02,-4.968390241265296936e-02,-5.117453634738922119e-03,-8.211636915802955627e-03,9.603578597307205200e-03,-3.049887157976627350e-02,-3.059794194996356964e-02,3.656312450766563416e-02,-2.637408673763275146e-02,1.592610031366348267e-03,-4.908489808440208435e-02,3.780866786837577820e-02,-6.351513415575027466e-02,2.273383177816867828e-02,4.859786108136177063e-02,-7.636380847543478012e-03,-3.110060095787048340e-02,4.484040662646293640e-03,-4.877718910574913025e-02,-2.126134559512138367e-02,7.825349457561969757e-03,-5.282664299011230469e-02,1.622040756046772003e-02,-6.092844158411026001e-02,-5.546269472688436508e-03,-5.226857587695121765e-02,-3.024229779839515686e-02,-4.338321462273597717e-02,-3.782280907034873962e-02,-4.355325549840927124e-02,2.056832052767276764e-02,-3.662237897515296936e-03,-8.818447589874267578e-03,3.239136934280395508e-02,1.256290823221206665e-02,1.681036129593849182e-02,-7.666863501071929932e-03,9.409506805241107941e-03,3.044576384127140045e-02,2.999663911759853363e-02,-1.355208270251750946e-02,-2.995440922677516937e-02,-1.027784310281276703e-02,-3.146856278181076050e-02,-3.800635412335395813e-02,-2.991662733256816864e-02,-2.799940481781959534e-02,-1.350234169512987137e-02,2.929813973605632782e-02,1.174707338213920593e-02,-3.351093828678131104e-02,-3.577381372451782227e-02,3.190661966800689697e-02,-1.093395426869392395e-02,-3.332448005676269531e-02,-8.775801956653594971e-02,-2.477599494159221649e-02,-6.865989416837692261e-02,-4.457237198948860168e-02,-3.798263147473335266e-02,-2.284841611981391907e-02,9.557134471833705902e-03,2.331608720123767853e-02,-2.031688392162322998e-02,-6.103419885039329529e-02,-1.967556960880756378e-02,-3.813141584396362305e-02,-4.027174040675163269e-02,1.412568241357803345e-02,-8.097724989056587219e-03,-5.126783996820449829e-02,-1.672755926847457886e-02,7.138745859265327454e-03,-4.410865157842636108e-02,-4.449675232172012329e-02,-2.867522835731506348e-02,-5.711506307125091553e-02,-3.142825514078140259e-02,-1.278090756386518478e-03,-6.160029396414756775e-02,2.397845871746540070e-02,-4.239516332745552063e-02,4.647126421332359314e-02,-4.746095463633537292e-02,1.742823421955108643e-02,3.062642179429531097e-02,-2.080960944294929504e-02,-5.985867232084274292e-02,-3.007903136312961578e-02,-5.451378412544727325e-03,2.832215093076229095e-02,-5.133607238531112671e-02,-5.479175969958305359e-02,1.512567512691020966e-02,-4.441955313086509705e-02,-5.169064924120903015e-02,2.437143959105014801e-02,7.169569842517375946e-03,-6.475311517715454102e-02,-4.373426362872123718e-02,-9.290637448430061340e-03,-2.950567379593849182e-02,4.252988472580909729e-02,3.149583190679550171e-02,2.262160368263721466e-02,2.185751311480998993e-02,-2.201086841523647308e-02,-4.532462731003761292e-02,1.581437326967716217e-02,2.188342623412609100e-02,-9.432831779122352600e-03,-3.826636588200926781e-03,-3.306557610630989075e-02,-6.227121129631996155e-02,-4.532952979207038879e-02,-1.633860170841217041e-02,-4.614077508449554443e-02,1.456103753298521042e-02,-5.099720135331153870e-02,-2.924100868403911591e-02,2.296907640993595123e-02,2.258460596203804016e-02,-1.123104244470596313e-02,-4.559250548481941223e-02,-1.189820095896720886e-02,-2.861068025231361389e-02,8.517063222825527191e-03,-2.329106070101261139e-02,-2.004083245992660522e-02,9.640575386583805084e-03,-4.519404098391532898e-02,2.385855838656425476e-02,-3.500132635235786438e-02,-4.151374101638793945e-02,1.718220114707946777e-02,7.001357153058052063e-03,2.577412873506546021e-02,2.591641061007976532e-02,-1.188908424228429794e-02,-1.985804550349712372e-02,3.623920306563377380e-02,2.341556362807750702e-02,-3.641055896878242493e-02,-1.494364719837903976e-02,-4.265511035919189453e-02
-2.604109421372413635e-02,-1.110671740025281906e-02,-4.445394873619079590e-02,-2.550980448722839355e-02,-9.813686832785606384e-03,-2.723113819956779480e-02,-4.207723215222358704e-02,-4.583406820893287659e-02,-6.561437249183654785e-02,4.686889797449111938e-02,-3.466180339455604553e-02,1.746191643178462982e-02,-9.453643113374710083e-03,-9.281238541007041931e-03,4.929093178361654282e-03,-6.176868453621864319e-02,2.814425714313983917e-02,-2.089449018239974976e-02,-2.531533688306808472e-02,3.811494261026382446e-02,-5.288511142134666443e-02,4.051297530531883240e-02,-4.726488515734672546e-02,3.418586403131484985e-02,1.222348539158701897e-03,-2.207566983997821808e-02,-2.373036369681358337e-02,-2.218294888734817505e-02,-3.369713574647903442e-02,3.708202159032225609e-03,-2.156657166779041290e-02,3.891497105360031128e-02,3.056800365447998047e-02,1.894350349903106689e-02,3.545925766229629517e-02,1.678734645247459412e-02,-2.774758264422416687e-02,5.011256784200668335e-02,2.196735469624400139e-03,3.169083595275878906e-02,-2.331507764756679535e-02,2.773320116102695465e-02,2.790659293532371521e-02,-2.647210471332073212e-02,-5.190909653902053833e-02,1.806780882179737091e-02,1.538657490164041519e-02,-3.168822079896926880e-02,3.883350268006324768e-02,-1.081275753676891327e-02,-1.142850611358880997e-02,5.619587376713752747e-03,-9.744805283844470978e-03,2.724271267652511597e-02,-3.466892242431640625e-02,2.811965532600879669e-02,-2.952292747795581818e-02,-2.775321248918771744e-03,3.866231814026832581e-02,-4.488619789481163025e-02,-4.287406802177429199e-03,-3.835835377685725689e-04,-1.402249676175415516e-03,3.316753357648849487e-02,-5.092429742217063904e-02,-4.888456314802169800e-02,-4.029689356684684753e-02,-4.327322542667388916e-02,4.102992266416549683e-02,-3.033946268260478973e-02,-4.431812092661857605e-02,-5.885382741689682007e-02,-3.672310337424278259e-02,-1.510920934379100800e-02,-2.129384502768516541e-02,1.881122775375843048e-02,2.913452312350273132e-02,-1.331197563558816910e-03,-6.086487323045730591e-02,4.756857827305793762e-02,2.514662034809589386e-02,-3.822971507906913757e-02,-4.984248802065849304e-02,3.853867948055267334e-02,3.617044538259506226e-02,4.636663012206554413e-03,4.274559020996093750e-02,5.474601406604051590e-03,-4.536228999495506287e-02,-4.568446055054664612e-02,-4.938021884299814701e-04,-1.233159750699996948e-02,1.822857302613556385e-03,-9.076630696654319763e-03,4.026301950216293335e-02,-2.253622747957706451e-02,-5.385660752654075623e-02,2.870540134608745575e-02,-1.983520761132240295e-02,-2.201726660132408142e-03,-2.229433320462703705e-02,-4.794196039438247681e-02,-2.393053658306598663e-02,-2.907781396061182022e-03,-2.751730941236019135e-02,1.414096076041460037e-02,-1.430007908493280411e-02,1.951032690703868866e-02,3.243003040552139282e-02,-7.061502337455749512e-02,-3.672546520829200745e-02,-2.539148926734924316e-02,-3.960458934307098389e-02,1.712197437882423401e-02,-3.496522456407546997e-02,4.539580270648002625e-02,6.981165497563779354e-04,-5.218498874455690384e-03,-1.922914013266563416e-02,2.597430907189846039e-02,3.919839113950729370e-02,-4.442228749394416809e-02,-2.282506600022315979e-02,-1.263865362852811813e-02,-3.355147317051887512e-02,1.818569190800189972e-02,3.734959661960601807e-02,2.663971111178398132e-02,-4.262410104274749756e-02,-5.171423777937889099e-02,-7.336580660194158554e-03,-4.139729961752891541e-02,-2.984324935823678970e-03,-2.031700499355792999e-02,4.634076729416847229e-03,-2.334657125174999237e-02,-4.499424248933792114e-02,-4.933415353298187256e-02,9.553209878504276276e-03,2.028549648821353912e-02,-4.407400730997323990e-03,-8.156734518706798553e-03,-2.032064832746982574e-02,-5.005303397774696350e-02,-3.697225823998451233e-02,-3.311162814497947693e-02,-9.460687637329101562e-03,2.364554814994335175e-02,3.803778812289237976e-02,-1.868251897394657135e-02,2.855829708278179169e-02,5.281672929413616657e-04,-1.145280338823795319e-02,-5.471683666110038757e-02,1.432238612323999405e-02,3.373911604285240173e-02,-4.406085610389709473e-02,3.333637863397598267e-02,-1.394378021359443665e-02,1.681740209460258484e-02,1.398760359734296799e-02,-8.250015787780284882e-03,-1.626230403780937195e-02,1.914958842098712921e-02,-3.578890487551689148e-02,-3.905742242932319641e-02,-6.744166463613510132e-02,-1.676364615559577942e-02,-2.112040668725967407e-02,-4.176427796483039856e-02,-2.934893779456615448e-02,1.480901427567005157e-02,-2.779688872396945953e-02,2.792263589799404144e-02,1.279295887798070908e-02,-1.831431500613689423e-02,-3.026678226888179779e-03,-4.393539577722549438e-02,-1.201110985130071640e-02,3.509236872196197510e-02,2.921109646558761597e-02,2.296186611056327820e-02,4.418323561549186707e-02,-4.827567189931869507e-02,-2.494073007255792618e-03,-1.993803121149539948e-02,1.362623274326324463e-02,-3.320622071623802185e-02,-4.329282045364379883e-02,-9.327840991318225861e-03,-5.802550166845321655e-02,-5.339749157428741455e-02,4.263997822999954224e-02,-1.581165939569473267e-02,-3.382200375199317932e-02,2.654749155044555664e-02,-5.142292380332946777e-02,-6.185601279139518738e-02,4.007523879408836365e-02,4.360958468168973923e-03,-5.467684566974639893e-02,-5.143109336495399475e-02,-5.274859070777893066e-02,3.689779667183756828e-03,9.132308885455131531e-03,-5.608724802732467651e-02,5.010840483009815216e-03,-3.361634537577629089e-02,-3.265418577939271927e-03,6.055574864149093628e-03,-4.370268434286117554e-02,1.088038552552461624e-02,-1.650508306920528412e-02,-7.928916253149509430e-03,2.569829858839511871e-02,-3.724188357591629028e-02,-4.658129438757896423e-02,-3.112828731536865234e-02,-1.784385181963443756e-02,3.420729562640190125e-02,-1.652557216584682465e-02,6.505250465124845505e-03,-1.497423835098743439e-02,-4.299309104681015015e-03,1.658763363957405090e-02,6.224334239959716797e-03,-4.074295982718467712e-03,1.262922957539558411e-02,-5.486085638403892517e-02,-1.985627785325050354e-02,-3.249092400074005127e-02,-9.343329817056655884e-03,1.526595372706651688e-02,-5.547465384006500244e-02,1.964772492647171021e-02,7.558936253190040588e-03,8.679032325744628906e-03,-3.143675252795219421e-02,-5.395001545548439026e-02,-1.012100744992494583e-02,1.628963090479373932e-02,1.552861277014017105e-02,-2.389049716293811798e-02,-3.482963889837265015e-02,2.292184904217720032e-02,-2.180719189345836639e-02,5.251444131135940552e-02,1.235482841730117798e-02,1.666249707341194153e-02,-4.980434477329254150e-02,7.749545853585004807e-03,3.831245005130767822e-02,4.484885837882757187e-03,7.317506824620068073e-04,-3.893459914252161980e-03,2.618187665939331055e-02,6.653992459177970886e-03,-1.046707402565516531e-04,4.360578488558530807e-03,4.499867558479309082e-02,-2.404586412012577057e-03,-9.874671697616577148e-03,1.610767655074596405e-02,-4.663035646080970764e-02,2.257841115351766348e-04,-3.774395212531089783e-02,-5.675523425452411175e-06,-2.885155193507671356e-02,3.423230722546577454e-02,-1.676957868039608002e-02,-4.843872785568237305e-02,-3.430092940106987953e-03,1.407159399241209030e-02,-6.944198161363601685e-03,-2.891973592340946198e-02,-5.131447687745094299e-02,-8.073246106505393982e-03,-7.960609160363674164e-03,-3.853318095207214355e-02,-7.509358227252960205e-03,3.993137925863265991e-02,3.345642983913421631e-02,-2.116799540817737579e-02,1.340238284319639206e-02,-3.182313218712806702e-02,9.166570380330085754e-03,-2.041941881179809570e-02,-1.851475611329078674e-02,-1.612256653606891632e-02,-2.864569053053855896e-02,-1.536912098526954651e-02,4.705165326595306396e-02,-1.126212067902088165e-02,3.301182389259338379e-02,-4.952942579984664917e-02,-5.072200670838356018e-02,-4.092893749475479126e-02,-3.050380013883113861e-02,-3.095239959657192230e-02,-4.715645685791969299e-02,-1.015499047935009003e-02,9.495515376329421997e-03,2.551818080246448517e-02,3.785983845591545105e-02,2.645366080105304718e-02,-1.885522156953811646e-02,3.343481197953224182e-02,2.277344930917024612e-03,1.134386844933032990e-02,2.485715597867965698e-02,-1.532763428986072540e-02,-3.466722322627902031e-03,1.182588282972574234e-02,-4.159995913505554199e-02,1.267327088862657547e-02,3.056236542761325836e-02,1.677177287638187408e-02,1.532341167330741882e-02,-1.092392392456531525e-02,-1.784086413681507111e-02,-4.193557053804397583e-02,-3.235386684536933899e-02,-2.643896266818046570e-02,-1.804598979651927948e-02,-3.673494607210159302e-02,-2.569661848247051239e-02,-6.334292236715555191e-03,1.685900241136550903e-02,2.307020314037799835e-02,-4.300115257501602173e-02,-4.904663935303688049e-02,-3.997291252017021179e-02,-5.019239708781242371e-02,1.563593558967113495e-02,-1.790132373571395874e-02,4.337791353464126587e-03,-3.313076496124267578e-02,3.931232914328575134e-02,-7.973789237439632416e-03,-6.321152299642562866e-02,-3.050075657665729523e-02,-1.480558887124061584e-03,-3.897562623023986816e-02,2.317596226930618286e-02,-2.133759483695030212e-02,-6.758501287549734116e-03,-5.411793943494558334e-03,3.248035535216331482e-02,-4.969860240817070007e-02,-5.629838258028030396e-02,2.955243922770023346e-02,-2.918284386396408081e-02,-8.719696663320064545e-03,-2.888792008161544800e-02,2.728533931076526642e-03,-3.655430302023887634e-02,3.196731954813003540e-02,-5.806028842926025391e-02,3.160823881626129150e-02,-2.414062991738319397e-02,-5.650057643651962280e-02,-2.415325492620468140e-02,-5.005166679620742798e-02,-3.436915576457977295e-02,-3.898723050951957703e-02,-2.527053840458393097e-02,-1.534989662468433380e-02,3.695352375507354736e-02,2.252636849880218506e-02,3.350925818085670471e-02,-1.087888702750205994e-02,-4.183463007211685181e-02,-2.614504098892211914e-02,-5.429967865347862244e-02,-7.065552286803722382e-03,-7.853467017412185669e-03,3.572067245841026306e-02,2.381060272455215454e-02,5.969332996755838394e-03,-1.720257103443145752e-02,4.115431010723114014e-02,-1.602079160511493683e-02,-1.586957462131977081e-02,-3.892684821039438248e-03,-1.872951909899711609e-02,1.595132239162921906e-02,-3.417454287409782410e-02,-1.502314675599336624e-02,8.035822771489620209e-03,-2.849632315337657928e-02,-4.613359645009040833e-02,-9.259407408535480499e-03,-1.828118786215782166e-02,-4.287512227892875671e-02,-4.843127354979515076e-02,4.100643470883369446e-02,-4.873672500252723694e-02,7.772446610033512115e-03,2.591822110116481781e-02,-3.511361405253410339e-02
