8.884031325578689575e-03
-9.450132250785827637e-01
-5.590714514255523682e-02
-1.358112841844558716e-01
1.321482509374618530e-01
-4.263821989297866821e-02
-1.112406514585018158e-02
1.765779405832290649e-02
2.027509268373250961e-03
-5.612023472785949707e-01
-3.583042882382869720e-03
-8.022771030664443970e-02
-1.115153431892395020e-01
-5.215399861335754395e-01
-4.032779857516288757e-02
2.888326719403266907e-02
1.106527925003319979e-04
3.519362770020961761e-03
-8.041715025901794434e-01
1.206126138567924500e-01
5.963269472122192383e-01
-1.294883489608764648e+00
-3.680690750479698181e-02
-7.875282317399978638e-02
-2.485821582376956940e-02
-5.129010975360870361e-02
-6.482048034667968750e-01
-5.144282802939414978e-02
-3.452542796730995178e-02
1.898511126637458801e-02
6.675560474395751953e-01
-2.931473962962627411e-02
-3.980801403522491455e-01
-5.471376352943480015e-04
-3.686627000570297241e-02
-2.672298625111579895e-02
-3.157606720924377441e-02
3.239429742097854614e-02
1.323413755744695663e-02
5.772562026977539062e-01
-3.443476930260658264e-02
-6.199688315391540527e-01
-3.744000792503356934e-01
-1.048208594322204590e+00
-3.134725987911224365e-02
-4.352392256259918213e-02
5.957551766186952591e-03
-4.287586212158203125e-01
-5.073050409555435181e-02
-1.270044967532157898e-02
-6.187013536691665649e-02
-6.562992185354232788e-02
5.788780450820922852e-01
-5.861621350049972534e-03
3.430832028388977051e-01
-6.560432165861129761e-02
3.930119276046752930e-01
-2.582047879695892334e-01
-8.496411144733428955e-02
-6.350496411323547363e-02
-2.763595059514045715e-02
-7.813365012407302856e-02
9.468620643019676208e-03
2.894743578508496284e-03
-6.763758659362792969e-01
-7.632371783256530762e-02
3.716748654842376709e-01
-4.138214979320764542e-03
3.004088066518306732e-02
8.787225931882858276e-03
-5.485048983246088028e-03
-2.564387023448944092e-02
-3.199455514550209045e-02
-6.182304769754409790e-02
-2.389171905815601349e-02
3.602464217692613602e-03
-1.647779941558837891e-01
-2.707572840154170990e-02
-3.514343500137329102e-01
7.438684348016977310e-03
-4.026347026228904724e-02
4.030780494213104248e-01
-4.669568315148353577e-02
-2.912383675575256348e-01
-3.868864104151725769e-02
-4.916591942310333252e-02
-7.725236564874649048e-02
2.420339360833168030e-02
-4.305144771933555603e-02
1.243362948298454285e-02
8.861948736011981964e-03
-7.997513562440872192e-02
-3.592991828918457031e-02
-1.027936935424804688e+00
2.414047531783580780e-02
-5.304508805274963379e-01
8.343940600752830505e-03
-5.085769295692443848e-02
-6.454734504222869873e-02
1.598458550870418549e-02
4.760425686836242676e-01
2.012251913547515869e-01
4.217448532581329346e-01
-5.787663906812667847e-02
-8.321027271449565887e-03
2.451946400105953217e-02
-7.845297455787658691e-02
-7.916615903377532959e-02
-5.631424486637115479e-02
-6.622089445590972900e-02
-5.385131761431694031e-02
-1.000963225960731506e-01
-4.115057289600372314e-01
-5.353796854615211487e-02
-1.225668787956237793e-01
-4.109816253185272217e-02
-8.709263801574707031e-02
-1.261754035949707031e-01
-4.116605967283248901e-03
-2.179542481899261475e-01
1.263568992726504803e-03
-3.834901377558708191e-02
-8.202669024467468262e-02
6.839409004896879196e-03
-1.987284049391746521e-02
1.405470073223114014e-02
4.831348657608032227e-01
8.947227615863084793e-04
-7.913275957107543945e-01
-6.613257527351379395e-02
-5.085803940892219543e-02
8.702797815203666687e-03
-2.813286706805229187e-02
-3.474409282207489014e-01
-2.560581825673580170e-02
-6.282357126474380493e-02
-5.369150545448064804e-03
-4.102924093604087830e-02
-1.142872348427772522e-01
5.302272271364927292e-03
7.150438614189624786e-03
-6.424797326326370239e-02
-5.714327562600374222e-03
-1.166742369532585144e-01
-1.041420102119445801e-01
-5.140627035871148109e-04
-4.258767664432525635e-01
-1.238851062953472137e-02
4.770133793354034424e-01
-5.276613309979438782e-02
-5.736383199691772461e-01
-3.493264317512512207e-01
-4.300780594348907471e-02
-2.469952031970024109e-02
-4.007630050182342529e-02
1.062623597681522369e-02
-7.192023843526840210e-02
4.952343646436929703e-03
-4.247177392244338989e-02
2.618802245706319809e-03
-3.417139127850532532e-02
7.229942679405212402e-01
-3.902877494692802429e-02
5.143376998603343964e-03
1.809476874768733978e-02
1.125621981918811798e-02
-7.412361912429332733e-03
-1.272472292184829712e-01
-1.103707432746887207e+00
4.165287688374519348e-02
-2.153431065380573273e-02
1.290900725871324539e-02
-2.019536122679710388e-02
6.190457344055175781e-01
-1.148448791354894638e-02
5.406928658485412598e-01
-7.447749376296997070e-03
-9.761832654476165771e-02
1.948524266481399536e-02
-7.083846628665924072e-02
1.998088881373405457e-02
-3.379572555422782898e-02
3.141105175018310547e-01
-5.150132998824119568e-02
-4.286636039614677429e-02
3.607878534239716828e-05
-8.296516723930835724e-03
-7.097580470144748688e-03
-8.667874336242675781e-02
-1.696667075157165527e-02
-2.331415191292762756e-02
-1.710173860192298889e-02
-3.174012601375579834e-01
2.464935369789600372e-02
-2.011819183826446533e-02
-8.870200067758560181e-02
-1.165985912084579468e-01
-2.366193756461143494e-02
-1.917210780084133148e-02
-4.716011136770248413e-02
7.924668490886688232e-03
-1.171718817204236984e-02
-7.413804065436124802e-03
-6.883409619331359863e-02
-1.173935234546661377e-01
-5.164336785674095154e-02
2.145669981837272644e-02
-6.341784447431564331e-02
2.809645608067512512e-02
-3.093517199158668518e-02
-7.323651760816574097e-02
-2.648833990097045898e-01
-6.276178359985351562e-02
-1.212617516517639160e+00
-1.183348149061203003e-01
-4.290911182761192322e-02
-7.805500924587249756e-02
-8.792161196470260620e-02
-1.490751188248395920e-02
-4.736582562327384949e-02
-1.046490296721458435e-01
-8.385866880416870117e-02
6.229771766811609268e-03
-3.667004108428955078e-01
-7.750748097896575928e-02
-2.968282066285610199e-02
-1.684692353010177612e-01
-2.646989375352859497e-02
-4.269273579120635986e-02
-3.047399781644344330e-02
-6.881659626960754395e-01
-4.794732034206390381e-01
-6.017214036546647549e-04
-5.396474618464708328e-03
2.236272906884551048e-03
-4.498392343521118164e-02
-1.289141178131103516e-01
2.933101654052734375e-01
9.632155997678637505e-04
-8.230672031641006470e-02
-9.308362007141113281e-01
-1.294929832220077515e-01
5.436978936195373535e-01
-2.434138767421245575e-02
-9.833142161369323730e-02
-1.449000239372253418e-01
-5.497385933995246887e-02
-1.755690202116966248e-02
-9.007535129785537720e-02
1.873474568128585815e-02
1.466628909111022949e-02
6.437720730900764465e-03
-2.526699900627136230e-01
-4.606030881404876709e-02
-1.265387684106826782e-01
5.934626236557960510e-02
-5.592587590217590332e-02
-1.246724277734756470e-02
-4.547062888741493225e-02
1.167700719088315964e-02
2.770754043012857437e-03
-2.783482708036899567e-02
2.299093455076217651e-02
-7.599961757659912109e-02
-5.053713321685791016e-01
-9.096775949001312256e-02
5.493124723434448242e-01
-1.527953743934631348e-01
-3.073973208665847778e-02
4.228697419166564941e-01
-7.112812995910644531e-02
-5.040007177740335464e-03
-1.628468632698059082e-01
3.662204369902610779e-02
9.612508118152618408e-02
-9.236129373311996460e-02
-1.912511736154556274e-01
-7.398969680070877075e-02
-3.101336769759654999e-02
2.242450788617134094e-02
-4.825184866786003113e-02
5.265226960182189941e-02
-3.080835938453674316e-01
3.965685889124870300e-02
-1.762290745973587036e-01
-2.144958451390266418e-02
-3.822099417448043823e-02
1.073055714368820190e-02
-8.373174816370010376e-02
-5.300199389457702637e-01
-7.327426671981811523e-01
4.189172759652137756e-02
-3.660971224308013916e-01
-3.875073045492172241e-02
-1.545746810734272003e-02
-2.145288288593292236e-01
-4.673797637224197388e-02
-4.265048727393150330e-02
-7.279501855373382568e-02
-7.620736956596374512e-01
